440 25
http://www.co-ode.org/ontologies/pizza/pizza.owl#FruitTopping 0.22603141 0.7078831 -0.43577427 -0.19267368 -0.5070701 -0.3808509 -0.21426131 -0.33146492 -0.051959895 0.066643216 0.20296374 -0.13298154 0.4072267 0.44273767 -0.35433438 -0.62552387 -0.31058747 -0.34737974 0.2686703 -0.4617825 -0.36247247 -0.20609012 0.16102342 -0.14238219 0.4154581 
http://www.w3.org/1999/02/22-rdf-syntax-ns#type -0.4262731 0.1632189 0.6974748 -0.86038685 -0.88007843 -0.63898677 -0.58755213 -0.14156288 -0.53754735 0.13798009 -0.5284196 0.08899193 0.14451046 0.1272538 0.2385073 -1.0082561 -0.32460338 -0.2551236 0.9252137 0.091772124 -0.6842259 1.1895763 -0.34381044 -0.34710914 0.45276526 
http://www.w3.org/2002/07/owl#Class 0.8347892 0.5005142 -0.8927316 -0.1596596 -0.41764468 -1.0934485 -0.47473168 -1.001005 -0.43198577 1.0306659 -0.071279526 -0.7261725 -0.34810805 -0.07852327 0.80225784 -0.44762188 -0.15026242 -1.3621297 0.6297448 0.44313014 -0.35752714 -0.3619699 0.85571384 -0.8227148 0.35732353 
http://www.w3.org/2000/01/rdf-schema#subClassOf 0.31011558 0.23963502 -0.14327893 0.005005216 -0.31795672 -0.48582372 0.29932967 -0.45633718 -0.27040544 0.44366878 0.805964 -0.71040976 0.12911676 -0.17735443 -0.090050556 -0.65242183 0.008837111 -0.539126 0.7727209 -0.069311544 -0.6903646 0.6345105 0.18388572 -0.14895415 0.14035903 
http://www.co-ode.org/ontologies/pizza/pizza.owl#PizzaTopping -0.28418076 0.6324812 -0.22645032 -1.146343 -0.5196581 -0.69580656 -1.6540341 -0.94127357 -0.026791442 1.0395454 1.4202099 -0.06061127 0.035161708 0.7056824 0.18385153 0.3495283 -0.81498873 -1.8023467 0.5015915 -0.50436985 -1.1996467 -0.36236417 0.29465097 0.26008338 0.05260727 
http://www.co-ode.org/ontologies/pizza/pizza.owl#Food -0.35932505 0.57060784 -1.3019569 -1.4640634 -1.4209929 -0.26243746 -0.0819205 -0.46471488 -0.16200356 0.5509895 0.7010026 -0.6520999 -0.39775667 0.9585187 0.23678182 -1.7065297 -1.0053658 -0.7938245 0.48775563 0.47728124 -1.4357108 -0.61209905 1.1301845 -0.75792694 0.24480456 
http://www.co-ode.org/ontologies/pizza/pizza.owl#DomainConcept -0.29106992 1.0343082 -1.0560746 -0.90548646 -1.2462629 -1.0064754 -0.7362741 -0.8735773 -0.13703738 0.27774766 0.5935784 -0.8215409 -0.23314342 0.69816333 -0.42989817 -0.47435412 -0.9932334 -0.18941064 0.31512424 -0.19515352 -0.32453564 -0.6611485 0.95854473 -0.26918572 0.9989518 
http://www.w3.org/2002/07/owl#disjointWith 0.41022676 0.5874209 -0.5973419 -0.40809348 -0.37010124 -0.750859 -0.5297016 -1.0178617 -0.29734206 0.66254675 0.79109603 -0.36176986 -0.546725 0.6679128 -0.045102675 -0.27708128 -0.7643582 -0.3700393 -0.038218737 -0.32831478 -0.25947437 0.09564162 0.16898815 -0.375436 1.0036017 
http://www.co-ode.org/ontologies/pizza/pizza.owl#ValuePartition 0.13474679 1.2696564 -0.44739366 -1.0387498 -0.57704884 -1.272245 -0.47968897 -0.83236814 -0.36213756 1.2825946 0.6329581 -0.36819935 -0.4403966 1.2640785 -0.3637931 -0.6235717 -0.024714882 -0.59776515 0.33519834 0.2011323 -0.793106 -0.036148712 0.21890046 -0.64747596 0.70257777 
http://www.co-ode.org/ontologies/pizza/pizza.owl#PrawnsTopping 0.28237793 0.49966508 -0.30462095 -0.4085806 -0.21793175 -0.5390386 -0.20839189 -0.25971112 -0.069078304 0.35120997 0.23879002 0.16376549 0.41989958 0.22016312 -0.18413769 -0.5273034 -0.28833368 -0.42271098 0.2502092 -0.37200412 -0.38000992 0.016740153 0.011214056 -0.10412554 0.46059236 
http://www.co-ode.org/ontologies/pizza/pizza.owl#FishTopping 0.40489027 0.99279135 -0.3924936 -0.0801608 -0.4016032 -0.50143987 -0.33920714 -0.52445316 -0.3199364 0.24934565 0.4006621 -0.1752006 0.35066694 0.66326135 -0.4022657 -0.76185274 -0.16082074 -0.48782554 0.46886373 -0.6542759 -0.44864047 0.005433116 -0.24917427 -0.12628841 0.55943626 
_:Ba049709dX2D9609X2D4da6X2Dacd8X2D872924617038 0.47975644 0.8897253 -0.2421624 -0.5091014 -0.029456949 -0.87772167 -0.28141356 -0.4238468 -0.37354603 0.5285099 0.35125095 0.17648937 0.20524047 0.3378561 -0.14580591 -0.7219472 -0.039219208 -0.68590826 0.2725178 -0.301672 -0.67738134 0.085487954 -0.49281216 -0.29208347 0.12269981 
http://www.w3.org/2002/07/owl#Restriction 1.4068298 0.83904094 -0.12607269 0.6076117 0.3500727 -0.33807766 -0.0007681945 -0.21397138 0.28765887 0.33575648 0.23135185 0.042930845 1.0107533 -0.061994515 -0.38305795 0.047946617 -0.8463677 -0.34428775 0.18335313 -1.0359281 -0.100325435 -0.43089765 0.5089644 0.08039674 0.41765413 
http://www.w3.org/2002/07/owl#someValuesFrom 1.1613266 0.4846003 -0.22476856 0.55972624 0.5631871 0.31983066 -0.30333206 -0.15287861 -0.40866864 0.7198152 0.7068133 -0.20389953 0.99303967 0.5497104 -0.43195045 -0.43771046 -0.5854126 -0.8526507 0.22401842 -0.7328388 -0.1431115 0.474545 0.11097524 -0.23275235 0.9317705 
http://www.co-ode.org/ontologies/pizza/pizza.owl#Mild 1.2225399 1.6812533 0.11783818 -0.08454922 -0.5067593 -1.2415476 -0.30470076 -1.4017947 0.2813576 0.6855854 0.34941342 0.2508723 0.4372437 0.6401632 -1.0259774 -0.5324048 -0.40878206 -0.6976089 -0.14773539 -1.1033188 -0.3564437 0.51603836 -0.094882935 -0.40679199 0.5311038 
http://www.co-ode.org/ontologies/pizza/pizza.owl#Spiciness 0.39437258 1.930664 -0.17325765 -0.6359133 0.026712561 -1.3753846 -0.9770928 -0.8744355 -0.50305074 0.3680322 0.97407985 0.56940943 -0.87292546 0.71273106 -0.46159318 -1.4201888 -0.75306165 -0.8819417 -1.035294 -0.72395587 -1.6873678 -0.31697443 -1.4323932 -0.56552726 -0.12570186 
http://www.w3.org/2002/07/owl#onProperty 0.6914016 0.050974913 0.53188777 0.0036786129 -0.7605588 -0.9624102 0.28184637 0.94591784 0.21922003 1.1091971 0.35379604 -0.015115846 0.72190964 0.46457803 -0.109880686 -0.40954152 -0.7931654 0.4288999 1.2552054 -0.043175433 -0.5948823 -0.5959355 0.400851 0.00915826 0.018217234 
http://www.co-ode.org/ontologies/pizza/pizza.owl#hasSpiciness 0.93864703 1.7505243 0.547672 -0.71913373 1.0172367 -0.6283062 -0.9059521 -1.453368 -0.7450866 0.62474346 0.120133035 1.0665151 -0.4099243 0.7514484 -0.40374428 -0.35846144 -0.06986629 -0.22222373 0.49311945 -1.1460943 -1.4896691 -0.065765664 -0.61047816 0.3687745 0.020973371 
http://www.w3.org/2000/01/rdf-schema#range 0.2596857 1.7100056 0.38291514 -0.001324362 -0.5145893 0.16025029 -0.4534749 -0.7262632 -0.030187698 0.6897709 0.7815387 -1.3222026 -0.20087059 1.0512822 -0.42964932 -1.2148072 -0.22030166 0.07042721 1.7074002 0.22292538 -0.3936567 0.111983985 -0.7966894 0.4078439 0.6613149 
http://www.w3.org/2002/07/owl#ObjectProperty 0.9212005 1.8259443 -0.013180844 -0.071170904 0.06723543 -0.37216762 -0.11501806 0.25907993 0.37851474 0.33293852 -0.26977625 -0.9682943 0.45750463 -0.2781634 0.3016898 -1.1563748 -0.7066364 0.32920742 1.1155795 0.76625764 -1.2650696 -0.92330974 -0.34484214 0.36527556 -0.22095828 
http://www.w3.org/2002/07/owl#FunctionalProperty 1.3875738 1.6882672 0.27231327 0.22883803 0.2852814 -0.5024284 -0.27177888 0.33057827 0.36284056 0.36359948 -0.5939209 -0.6585191 0.512216 -0.73550594 0.47284612 -1.1855103 -0.62933487 0.07633054 1.0956955 0.90758795 -1.4116781 -0.9506236 -0.71173286 0.46385127 -0.006668612 
http://www.co-ode.org/ontologies/pizza/pizza.owl#America 0.57956815 0.68327135 0.11432226 0.09905925 0.049133617 -0.4444211 -0.36918715 -0.37686315 0.09652912 0.23198548 -0.12315314 -0.12925437 0.0717758 -0.15566973 -0.14881292 -0.36777976 -0.6678592 -0.07767854 -0.2891959 0.017456915 -0.40498152 -0.11583044 0.1359861 -0.08643922 0.120848306 
http://www.w3.org/2002/07/owl#NamedIndividual 0.44939485 0.5450925 -0.052268237 0.008398744 0.050299652 -0.33311722 -0.2509069 -0.2553869 0.115412824 0.2262856 0.041234713 -0.10263884 0.16674386 -0.17080685 -0.07117294 -0.3247231 -0.42050582 -0.17946525 -0.024077268 -0.08828451 -0.35039717 -0.15834805 0.06407816 -0.0074132537 0.12816943 
http://www.w3.org/2002/07/owl#Thing 0.53760433 0.6220834 0.019249484 0.07787647 0.060301896 -0.38515493 -0.28653473 -0.2906608 0.13077857 0.29951245 -0.008992341 -0.13280173 0.13564944 -0.18760592 -0.052659623 -0.3346285 -0.48522165 -0.14247438 -0.04837953 -0.028246017 -0.3894032 -0.17322795 0.028657243 0.0072843446 0.04406412 
http://www.co-ode.org/ontologies/pizza/pizza.owl#Country 0.6304224 1.0128182 0.45900512 0.23511484 -0.10025915 -0.57718533 -0.88036585 -0.82736385 0.084953874 0.1265743 -0.3229458 -0.40804085 -0.23657292 -0.2639971 -0.3373905 -0.564672 -1.2670426 -0.14288142 -0.7001725 0.14261805 -0.7028634 0.044898808 0.2641369 -0.17937495 0.067806855 
http://www.w3.org/2002/07/owl#equivalentClass 0.31787685 0.9679845 0.048010144 -0.34019798 0.4382777 -1.1110325 -0.13063659 -0.69880205 -0.59989685 0.56869507 -0.4744936 -0.12890904 -0.44630143 -0.42315918 -0.48716468 -1.0979666 -0.66723484 -0.18987395 -1.0062335 0.7655941 -1.1445506 0.56180084 0.51021004 -1.2822919 0.0015553053 
_:Be9640191X2D677fX2D4e53X2D8d15X2Da54f0c98ae27 0.4146666 0.86661446 0.43866655 0.0658546 -0.09449316 -0.5972329 -0.796107 -0.76278734 0.09638205 0.24377185 -0.35193592 -0.3459257 -0.4101589 -0.3255421 -0.25402597 -0.70973873 -1.3496792 -0.031509172 -0.757207 0.33865097 -0.74118626 0.18470097 0.3927061 -0.24805677 0.23548608 
http://www.w3.org/2002/07/owl#intersectionOf 0.28586242 0.57474697 0.2625508 0.054383073 0.26612106 -0.6790584 -0.47402123 -0.54060245 -0.083817646 0.32522923 -0.3359604 -0.39390063 -0.008704407 -0.9585857 -0.5179875 -0.8091095 -1.9326614 0.05561589 -1.028409 0.42263648 -0.6255047 0.5440942 1.4509615 -0.5923741 0.6302555 
_:Ba555a2c5X2D0ec5X2D4e6bX2D8979X2Dd569ca6f8c07 0.3229095 0.48509896 0.28788993 -0.05193598 -0.014890788 -0.62554854 -0.5480754 -0.58974004 0.17773087 0.5084002 -0.1297398 -0.27634698 -0.3909135 -0.47531986 -0.099944495 -0.70916426 -1.2275214 -0.030465882 -0.7226081 0.44233593 -0.5691145 0.3562152 0.43994245 -0.30535328 0.5239511 
http://www.w3.org/1999/02/22-rdf-syntax-ns#rest 0.5054905 0.39960635 0.51731855 0.12921508 0.9019051 -0.60128766 -0.34641254 -0.18788894 0.478941 0.7313065 -0.2949569 0.23146679 0.22521207 -1.3731855 -0.2917985 -0.981974 -1.4409404 0.23542517 -1.2801073 0.321789 -0.51435226 0.736998 0.39139444 -0.16474006 0.76914465 
_:B54e84deeX2Daa9dX2D48e4X2D8feeX2D5ef9270df22b 0.28301612 0.37336308 0.20131817 -0.06242963 0.25369018 -0.47083616 -0.28833565 -0.23244412 0.20202611 0.35696754 -0.11233315 0.070734546 0.009692301 -0.54938275 -0.10059919 -0.5837533 -0.7711373 -0.0019485392 -0.56077003 0.1846701 -0.35742447 0.30406117 0.116596274 -0.12335711 0.38181466 
http://www.w3.org/1999/02/22-rdf-syntax-ns#first 0.2835012 0.44627607 -0.038496185 0.039244227 0.17242086 -0.49611318 -0.35791126 -0.66388667 -0.22180323 0.24113688 -0.031348247 -0.5276898 -0.027153442 -0.61062205 -0.4386047 -0.48399952 -1.5926424 -0.122540794 -0.66038543 0.13818963 -0.22645381 0.509517 1.2789146 -0.5605132 0.8864375 
http://www.co-ode.org/ontologies/pizza/pizza.owl#MeatTopping 0.3157426 0.82683146 -0.40608057 -0.16577771 -0.84326905 -0.4984491 -0.5272028 -0.67013437 -0.245498 0.17717731 0.39724758 -0.36128998 0.48201078 0.6898363 -0.5317904 -0.58838 -0.44647068 -0.42705286 0.5417251 -0.64487016 -0.3883414 -0.24060254 0.18119322 -0.009362516 0.54178 
http://www.co-ode.org/ontologies/pizza/pizza.owl#AsparagusTopping 0.36850145 0.5896557 -0.22251906 -0.2860722 -0.19344875 -0.57196444 -0.18709005 -0.29058072 -0.14899291 0.30235985 0.2563334 0.12901336 0.4751236 0.08406712 -0.27468744 -0.56947154 -0.18944655 -0.49555475 0.09699104 -0.3481767 -0.4081407 0.11596571 -0.12409463 -0.15029895 0.29549205 
_:Bb8e38d13X2D0b77X2D4fc6X2D8c7dX2D11d101e890c9 0.44871658 0.6445753 -0.18442293 -0.26074824 0.007764139 -0.60418063 -0.1645692 -0.3035731 -0.093411714 0.33751357 0.1700068 0.12432252 0.31810665 -0.069840774 -0.14250171 -0.5830268 -0.07018388 -0.40677088 0.06614025 -0.20490316 -0.39518026 0.15836959 -0.30537024 -0.15114184 0.21721385 
http://www.co-ode.org/ontologies/pizza/pizza.owl#VegetableTopping 0.7597668 1.0317724 -0.7142184 0.43372795 -0.72685313 -0.59237057 -0.6051361 -0.8599653 -0.2684119 0.120522805 0.5445673 -0.5085463 0.9303976 0.922704 -0.55010337 -0.5866305 -0.47059405 -0.8132202 0.7216944 -1.2940772 -0.24090177 0.035833467 0.1781202 0.0012923412 1.2259868 
_:B3116edabX2D35ffX2D47f3X2Db520X2D5a9d2ab3c8f4 0.60314274 1.4789406 0.15785798 -0.7617382 0.3151795 -1.4949001 -0.464302 -0.76560295 -0.23920317 0.9615402 -0.14961661 0.6101074 -0.6368158 0.43294364 -0.1829545 -1.1813436 -0.4764809 -0.27345487 -0.8640971 0.36254585 -1.1021084 0.21547014 -0.39625323 -0.6693136 0.25579047 
http://www.co-ode.org/ontologies/pizza/pizza.owl#isBaseOf 0.123889 0.8618988 0.20794497 -0.38408315 -0.148759 -0.18076 -0.37383416 0.054191947 0.39199117 -0.030090388 -0.38898408 -0.26675943 0.05993734 -0.743073 0.108582616 -0.80862385 -0.98718715 0.4418452 0.7161928 0.28125286 -0.941551 -0.72503257 0.20778222 0.54998475 0.114607416 
http://www.w3.org/2002/07/owl#InverseFunctionalProperty 0.43606916 1.0158982 -0.21109237 -0.1890303 0.0949284 -0.08115356 -0.597555 -0.17439856 0.66451955 0.48349828 0.3547181 -0.6926976 0.3350926 -0.89544773 0.1856363 -0.5488897 -0.6073854 -0.5514748 0.56381583 0.52076787 -0.78678775 -0.6608782 0.12776847 0.59290224 0.0017751944 
http://www.w3.org/2000/01/rdf-schema#subPropertyOf 0.09316668 0.37212336 -0.42901328 -0.36205316 -0.11559181 -0.1597629 -1.2187036 0.36465767 -0.040668096 0.7893556 -0.31278008 -0.43694136 0.42000994 -0.3580712 0.36994028 0.14020094 -0.48050252 0.05218258 1.1501015 0.1869844 -2.2015257 -0.5420749 0.14520594 1.4857451 0.83181286 
http://www.co-ode.org/ontologies/pizza/pizza.owl#isIngredientOf 0.262395 1.898836 -0.074093565 -1.2997025 -0.045601293 -0.47574157 -0.12319861 0.36508748 0.362339 0.35494635 -0.5430681 -0.8420575 0.30792448 -0.79604244 0.54966044 -1.9214793 -1.6786559 1.209189 1.8972117 0.9065777 -1.9960935 -0.9966939 0.4392658 0.61357564 0.27948776 
http://www.w3.org/2002/07/owl#TransitiveProperty 0.34801742 2.0694764 -0.35800222 -0.7078844 -0.28941408 -0.113761865 -0.39394414 -0.09916566 0.26856324 0.21106961 -0.098296426 -1.4158522 0.10564247 0.037728414 0.26481506 -1.3050244 -1.3767965 0.56413853 1.2906891 0.83848476 -1.6860918 -1.3493282 0.6392913 0.55723506 -0.24908157 
http://www.co-ode.org/ontologies/pizza/pizza.owl#hasCountryOfOrigin 0.4325184 0.65724444 -0.07871413 -0.32526496 0.28464267 -0.314423 -0.24073796 -0.31861866 -0.0946191 0.18510948 0.09402809 0.24891686 0.39831832 -0.48914322 -0.0457545 -0.5625694 -0.123415686 -0.32853657 0.25591326 -0.28068736 -0.62128603 0.14970262 -0.36136982 0.17695872 0.15283382 
http://www.co-ode.org/ontologies/pizza/pizza.owl#VegetarianPizzaEquivalent2 0.2590722 0.46085614 0.14061926 -0.04085467 0.0029735728 -0.36851984 -0.31894115 -0.31060416 0.103240766 0.2459632 -0.10211203 -0.038155116 -0.10019941 -0.2118021 -0.1400649 -0.45725852 -0.6439515 -0.04726315 -0.3436743 0.10608522 -0.35990387 0.09630815 0.11497085 -0.09141038 0.2663223 
_:B8b2fa6f8X2Df75aX2D47abX2Daaf2X2D8b27382b384f 0.2381395 0.3989787 0.1651706 -0.06228717 0.08217697 -0.4154687 -0.34492064 -0.31038427 0.14398691 0.25419086 -0.13427824 -0.0631925 -0.13451745 -0.3967555 -0.06907618 -0.5039408 -0.8649982 0.002939253 -0.46057308 0.17641637 -0.32066557 0.17705329 0.28032932 -0.14131081 0.40379202 
_:B253f5a9eX2D6572X2D417fX2D9b8aX2D2d53730a16b4 0.2102306 0.31077847 0.038571455 -0.082258865 -0.020205367 -0.38423222 -0.23912592 -0.23867102 0.15138614 0.23673834 -0.08135584 -0.0920452 0.02554765 -0.41857845 -0.1156649 -0.42351624 -0.9072844 -0.0412034 -0.38843003 0.17433678 -0.2449775 0.14009355 0.51276577 -0.18275104 0.45776078 
_:B8bd433ceX2D5732X2D4d9dX2DaeedX2D2c9a6df63575 0.1574427 0.21472642 0.07836427 -0.076991834 0.0534286 -0.28103969 -0.16582762 -0.076216124 0.12274692 0.2382018 -0.05493198 0.028524095 0.04506847 -0.23771256 -0.05407903 -0.2836795 -0.3385166 -0.016936092 -0.17234318 0.079399355 -0.18336153 0.08910316 0.08188671 -0.036818687 0.1995345 
http://www.w3.org/1999/02/22-rdf-syntax-ns#nil 0.3963031 0.4973147 0.22786213 -0.022248365 0.41806272 -0.4864472 -0.32153198 -0.16415237 0.31549898 0.41516814 -0.19745886 0.07016079 0.068344474 -0.7264527 -0.11828104 -0.6871405 -0.90933055 0.10101743 -0.70526457 0.28108925 -0.4156346 0.2829102 0.19397868 -0.10605157 0.38301793 
_:B0814bf7cX2Ddfb6X2D4c4aX2Da7ceX2D681c04385366 0.068455845 0.11629247 -0.019059157 -0.05408204 -0.00211234 -0.10798582 -0.088255465 -0.02027782 0.05002807 0.09133834 0.009457628 -0.0107694445 0.067815095 -0.08082755 -0.040194456 -0.1372434 -0.15990761 -0.06651892 -0.03362062 0.027792614 -0.089927204 0.023515258 0.057904687 -0.0010925671 0.09270487 
http://www.co-ode.org/ontologies/pizza/pizza.owl#Pizza -0.42190585 0.17452732 -0.7253553 -0.39453673 -1.216988 0.39362603 -1.0121632 -0.5275784 1.5316666 -0.12538946 0.6166733 -0.37654176 -0.11329325 -1.0141885 -0.07861389 -0.7277057 -1.2532897 -1.1888572 0.110351324 -0.23823345 -0.55336523 -0.8103521 0.4430432 0.8428183 1.3955826 
_:B07677869X2D3a5cX2D4d94X2D8926X2Da1a8c887fb1b -0.15404403 0.5064415 -1.2816024 -0.89130247 -0.963305 -0.26619747 -0.11870842 -0.019918585 0.25600058 -0.22030653 -0.3035982 -0.55324024 0.64709723 -1.0906694 -0.041102994 -1.2436516 -0.72286147 -1.135722 0.50985676 0.3465547 -0.60453594 -0.26247087 0.9902033 -0.33065096 0.75501287 
http://www.w3.org/2000/01/rdf-schema#seeAlso -0.20760193 -0.026901837 -1.1051258 -1.1020508 -0.27967244 0.1356241 -0.599983 -0.21191889 0.65129405 0.18539757 0.17520404 -0.46863228 0.24983527 -1.8958124 0.65574306 -0.9246585 -1.7393126 -0.7637194 0.46547452 0.5171906 -1.0113299 -0.14638089 1.5177189 0.12080358 1.2591081 
https://en.wikipedia.org/wiki/Pizza -0.3966061 0.08901129 -0.7644892 -0.9882319 -0.682868 0.08525479 -0.14702511 -0.03658451 0.67687184 0.082881615 0.06129351 -0.52960956 0.49900502 -1.8029844 0.30226812 -1.3935918 -2.000151 -0.83319587 0.53201246 0.5769838 -0.96036816 -0.41000658 1.5790256 0.24868196 1.3869321 
http://www.co-ode.org/ontologies/pizza/pizza.owl#FourCheesesTopping 0.35935244 0.61404014 -0.24091847 -0.21729647 -0.08051327 -0.5302822 -0.28820536 -0.2993773 -0.05809706 0.2809935 0.2007203 0.1853443 0.42649892 0.11601663 -0.28330314 -0.58692205 -0.2716653 -0.42106426 -0.11602566 -0.3912028 -0.4231809 0.07788064 -0.14570606 -0.13454361 0.31554404 
http://www.co-ode.org/ontologies/pizza/pizza.owl#CheeseTopping 0.76330215 0.8436551 -0.48258695 0.0485156 -0.75854707 -0.41436496 -0.50400144 -0.75398606 -0.45510396 0.34018627 0.33791167 -0.35876563 0.8628909 0.58152974 -0.6845542 -0.62680405 -0.29713193 -0.6542601 0.60697556 -1.0325582 -0.38762978 0.08524683 0.20341839 -0.10587804 0.6183161 
_:Ba95c0e38X2D59b3X2D4dc3X2D97c9X2D6a7d34854232 0.43273258 0.6916587 -0.15607412 -0.25864673 -0.014076514 -0.64129764 -0.15411614 -0.27988797 -0.16102482 0.34580797 0.1952743 0.16363192 0.39575264 0.015647355 -0.20549439 -0.66612774 -0.06098805 -0.380278 0.043273807 -0.21676049 -0.47150648 0.15599681 -0.37299767 -0.16863628 0.20687911 
http://www.co-ode.org/ontologies/pizza/pizza.owl#VegetarianPizzaEquivalent1 0.26738635 0.46359918 0.16556543 -0.03241558 0.057901967 -0.34184313 -0.3241237 -0.29576546 0.12837924 0.25079525 -0.10444208 -0.06841891 -0.120679505 -0.29289508 -0.07732264 -0.4586928 -0.7108362 -0.015654525 -0.3077388 0.18690865 -0.3713474 0.10333002 0.16776346 -0.05751149 0.2889839 
_:B9fa7b8cfX2De01eX2D437bX2D9ff6X2Db86d51dcebfa 0.2895942 0.43283442 0.12152474 -0.014251227 0.10539054 -0.37960172 -0.29146197 -0.28588358 0.16330695 0.2839328 -0.09087944 -0.11012089 -0.049296055 -0.42435727 -0.10244208 -0.5318267 -0.8628119 -0.054013766 -0.4280004 0.21678396 -0.2961993 0.1964993 0.28227907 -0.1641182 0.40060094 
_:Ba4b186f3X2Db404X2D44d3X2DabdcX2D3f707b92a218 0.19648781 0.3045371 0.115415804 -0.088884585 0.018829735 -0.3179881 -0.28701434 -0.21845964 0.1725163 0.23360035 -0.14086835 -0.112711474 -0.0011226011 -0.5034762 -0.116875395 -0.5116695 -0.93066245 -0.014480738 -0.34307683 0.22732668 -0.31725514 0.1728845 0.49805993 -0.1595168 0.4530749 
_:B964cb2efX2D11a8X2D45a9X2Dab50X2Dd1e67017972d 0.18861805 0.2585291 0.05667471 -0.05441605 0.051833503 -0.22469695 -0.18546024 -0.13482799 0.14189602 0.19379938 -0.0056903875 0.012015286 0.031896777 -0.24446453 -0.07500506 -0.31210995 -0.4014145 -0.06255253 -0.18143463 0.049727008 -0.21441069 0.0150742885 0.09553975 -0.031132895 0.1842538 
_:Baf25b3e1X2D5167X2D47e0X2Dae3dX2D451cd8d5fd5a 0.074267805 0.1282617 -0.029836705 -0.046690732 0.032390352 -0.123815656 -0.047735747 -0.059058636 0.050457295 0.08870107 0.017630657 0.008514074 0.07179918 -0.11630901 -0.009378349 -0.14071018 -0.1996898 -0.02935857 -0.05357538 0.0146726575 -0.10731267 0.021366917 0.07574707 -0.005178662 0.11848951 
http://www.co-ode.org/ontologies/pizza/pizza.owl#Margherita 0.15546721 0.20935258 -0.5471644 -0.8045879 -0.020539017 -0.25510505 -0.08589923 0.037429422 0.23799178 0.30196026 0.33777806 0.4148676 0.7108891 -0.34077546 0.25663367 -0.52071387 -0.49299347 -0.47208905 0.53419846 -0.38964877 -0.25211185 -0.14589387 0.021813674 0.2196071 0.8998288 
_:Bd4a3bcdeX2D5902X2D4aacX2D81e6X2D49d53dee63f9 0.10765685 0.3905497 -0.35802287 -0.6863083 -0.05158326 -0.29543474 -0.053481415 0.010672481 -0.020034397 0.28302726 0.2075507 0.07558093 0.47990632 -0.15068595 0.22027445 -0.52558035 -0.28406072 -0.24791604 0.65805465 -0.05489256 -0.43597662 -0.09843794 0.08280995 0.11007233 0.38106248 
_:Bd93decf1X2D76b0X2D49e1X2Db012X2D33d5ed5468dd 0.1056841 0.4234043 -0.31079075 -0.62343496 -0.014263268 -0.17451301 -0.12459349 0.026569325 0.029644119 0.29477206 0.11283124 -0.027635701 0.33346814 -0.21312161 0.19835518 -0.63782275 -0.3760028 -0.055723127 0.6635534 0.05748796 -0.57325834 -0.2848033 0.096075416 0.24055746 0.38663805 
_:B736c0b07X2Dcb91X2D4ba0X2D9e8eX2D63255f266632 0.19570857 0.45534563 -0.44173372 -0.717227 -0.15778056 -0.39971155 0.020919077 0.05446332 -0.008825352 0.25810337 0.12752357 0.11077272 0.53868604 -0.13150913 0.3713832 -0.5906472 -0.2746744 -0.29910153 0.8334509 -0.15053041 -0.5600529 -0.12309785 -0.02814561 0.12567012 0.40135968 
http://www.co-ode.org/ontologies/pizza/pizza.owl#NamedPizza 0.37349927 0.6583843 -0.7763049 -0.35756606 -0.27833566 -0.038150966 -0.16742292 0.1409297 -0.20192467 -0.41625655 0.40559307 -0.17240988 1.514063 -0.033706546 -0.5117379 -0.12897548 -1.3032564 -0.49662852 0.9104381 -1.0579131 -0.20421463 -0.26869228 1.2688202 0.18121842 1.1377034 
http://www.co-ode.org/ontologies/pizza/pizza.owl#TomatoTopping 0.82696307 0.7724189 -0.1688774 -0.18727745 -0.33263892 -0.5286741 0.1401968 -0.37640652 -0.24111342 0.013298991 0.42609167 0.047587167 1.1074014 0.36120352 -0.24743932 -0.54271847 -0.5323083 -0.8319472 0.4129873 -1.286317 -0.60887706 0.27197385 -0.16871645 0.025041262 0.07073033 
http://www.co-ode.org/ontologies/pizza/pizza.owl#hasTopping 0.058641434 0.097178996 -0.5555355 -0.37611285 -0.0016308071 0.27676883 0.15827362 0.05351507 -0.7377484 -0.29911813 -0.064883605 0.02597056 0.49631903 -0.63776207 -0.3479553 -0.93241894 -0.9850764 0.76778215 1.1001817 -1.1989548 -1.7385216 -0.9887285 0.77054846 0.71271163 0.46738756 
http://www.w3.org/2002/07/owl#allValuesFrom 0.19362931 0.36378703 0.07196119 0.11789514 0.25525987 -0.12527883 -0.26006287 0.06001201 0.4145056 0.17978431 -0.04426768 0.145312 0.42052183 -0.35332227 -0.44760466 -0.5621812 -0.8922555 0.18174674 -0.670882 -0.22017018 -0.3136441 -0.045879897 0.37871617 0.007881154 0.51947725 
_:Ba8644158X2Dff5bX2D4955X2D82c8X2D29eabf1b0608 0.18348141 0.3595455 -0.033408307 -0.16807376 0.071617305 -0.2636575 -0.1905697 -0.135525 0.08392396 0.19569021 0.019670863 0.04209566 0.19101097 -0.1664517 -0.08038449 -0.37890387 -0.42348692 -0.08561993 -0.092044 -0.028484035 -0.2558486 0.07927712 0.07257825 -0.031058535 0.31561178 
http://www.co-ode.org/ontologies/pizza/pizza.owl#MozzarellaTopping 0.87374514 0.31270134 -0.37833872 0.49613038 -0.2907461 -0.5077701 -0.10248658 -0.43062508 0.020754414 -0.033956006 0.3189405 0.38904572 1.3096567 -0.4462666 -0.33897224 -0.48017016 -0.60122377 -0.4726288 0.16584073 -1.2807899 -0.38047895 0.26044336 -0.40076706 0.17723577 0.52687633 
_:B980fe37aX2D8921X2D43f9X2Da498X2D2ff3ae70231f 1.0223517 1.1598107 -0.4075129 -0.22805241 0.20191602 -0.92580146 -0.4808069 -0.38551962 -0.46371803 0.40426958 0.51108783 0.05295107 0.79775137 0.1494378 -0.006652346 -0.818029 0.07430622 -1.1042492 0.504883 -0.5808051 -0.6217819 0.23307118 -0.9174137 -0.092018455 0.3710971 
http://www.co-ode.org/ontologies/pizza/pizza.owl#hasIngredient -0.48566633 0.7666927 0.2627665 -1.0274265 -0.32485756 -0.628824 -0.7759589 -0.53565407 0.75969267 0.7330545 0.6393654 -0.3293859 -0.6327145 -1.065976 0.20214973 -0.57967776 -1.084302 0.45347923 1.2654085 -0.7150433 -0.98131025 -1.5062943 0.17562588 1.1118065 0.0089747645 
http://www.w3.org/2000/01/rdf-schema#domain -0.52946585 1.1260245 -0.23460431 -0.923315 -0.010898574 0.52981555 -0.53714585 0.14080863 0.0757334 -0.3368297 0.9542385 -0.9621053 1.2020832 -0.42117575 -0.08897977 -0.059468552 -1.7296543 -0.47843093 1.2956855 -0.22184005 -0.6551807 0.014426874 1.1307641 0.58092254 0.33623955 
http://www.w3.org/2002/07/owl#inverseOf 0.21481843 1.1582962 0.95502746 -0.31521106 0.35458386 0.78188676 -0.75488055 0.6230018 -0.06829564 0.26208377 0.41682816 -0.50462323 1.086569 0.093558855 -0.009077634 -1.3170986 -1.422022 0.09323706 1.241619 0.09889423 -1.2748401 -1.054957 0.1676254 1.3274528 -0.115188845 
http://www.co-ode.org/ontologies/pizza/pizza.owl#isToppingOf 0.19251351 1.7076604 0.8296265 -0.72869396 0.07282917 -0.6159653 -1.1241128 0.25945863 1.1781344 0.46322277 -0.15508997 0.31156442 0.7443895 -1.4160267 -0.29786515 -0.94232 -1.0032086 0.6860092 1.0683812 0.08313775 -1.2102919 -1.5537854 -0.14075796 1.4081218 -0.55068696 
http://www.w3.org/2002/07/owl#unionOf 0.51481396 0.3197413 0.25058982 -0.06655951 0.66580385 -0.61477935 -0.2332494 -0.17328885 0.30058855 0.85436666 -0.15442444 0.23120119 0.0739893 -0.6012358 -0.08253789 -0.6875207 -0.83900625 0.08384225 -0.8068154 0.37639558 -0.2589994 0.49249035 0.20274784 -0.29690865 0.7749623 
_:Be34ad9d8X2D5522X2D41dbX2Da7a1X2Dc203bfef0033 0.20085762 0.2849481 -0.04390629 -0.11200328 0.083661854 -0.2655043 -0.14806992 -0.111562386 0.14641562 0.22960149 0.04012899 0.010988783 0.13183649 -0.2297036 -0.03931387 -0.30384213 -0.33357826 -0.10467078 -0.14725025 -0.011798725 -0.20720148 0.07476607 0.0274225 -0.02919353 0.23571512 
_:B4dd3afefX2D9d2eX2D49a2X2D91d8X2D9c4c41e26cd4 0.08119721 0.11139658 -0.018596644 -0.040183023 0.013524163 -0.119854644 -0.077498205 -0.07003217 0.03267821 0.12568554 0.021750404 0.010559963 0.053089682 -0.062221393 -0.025720546 -0.14531162 -0.16801384 -0.014937668 -0.017305955 -0.04026607 -0.1204913 -0.006983893 0.044407837 -0.0020417701 0.117924005 
_:B4a803d0eX2Df9ebX2D40d2X2D9c3fX2D0f5fbc95b839 1.0292796 1.0257342 -0.34867623 -0.2868613 0.3526879 -0.79039526 -0.20796242 -0.26591802 -0.20982517 0.5992052 0.34955707 0.23636861 0.80956554 -0.28974506 -0.11649463 -0.8069869 0.06636596 -0.9826313 0.1301135 -0.5441952 -0.5330629 0.317851 -0.7435895 -0.19543765 0.20002739 
_:B73edbf6aX2D6a96X2D4becX2D83c8X2Dda39d045af7f 0.9879817 0.7924797 -0.18628427 -0.16386756 0.44192716 -0.5455808 -0.28001955 -0.30534127 0.0021255955 0.49162146 0.032742362 0.4480248 0.9751799 -0.5599662 -0.17512134 -0.57659346 -0.09564013 -0.73224264 -0.063203 -0.59562284 -0.3444505 0.4624424 -0.42184114 -0.10367364 0.2963872 
http://www.w3.org/2002/07/owl#hasValue 0.849796 0.5534544 0.122552454 0.2055034 0.26865605 -0.6198409 -0.23936766 -0.18425436 0.10903533 0.43453997 -0.12849897 0.33442032 0.673108 -0.24773952 -0.25098962 -0.44798535 -0.507326 -0.2890931 -0.35241684 -0.34877342 -0.18726547 0.40981844 -0.134688 -0.2570831 0.41250205 
http://www.co-ode.org/ontologies/pizza/pizza.owl#Italy 0.87787753 0.7256379 0.14885734 0.23904085 0.1273817 -0.6241966 -0.34026682 -0.39085084 0.0465448 0.31940782 -0.19332376 0.1378954 0.44799325 -0.13045728 -0.21984062 -0.3650387 -0.6654121 -0.24736567 -0.3947363 -0.30557117 -0.26228666 0.21453895 -0.03938169 -0.25730288 0.2415948 
http://www.co-ode.org/ontologies/pizza/pizza.owl#PizzaBase -0.012055073 0.31082436 -0.57733494 -0.6237152 -1.2230684 -0.8719115 -0.25861534 -0.5083333 0.110413656 -0.13777207 0.4703735 -0.3527714 0.05643157 -0.39944807 -0.18879157 -0.1659571 -0.8294852 -0.9743263 0.5312404 -0.47295532 -0.57909113 -0.22401847 0.8001623 -0.10808895 0.39908034 
http://www.co-ode.org/ontologies/pizza/pizza.owl#hasBase 0.010658737 0.30091062 -0.24487954 -0.8081544 -0.3234972 0.24105406 -0.24223793 -0.1841108 -0.19435745 -0.7086409 -0.10728187 0.05159897 -0.089968905 -0.7312694 -0.060596477 -0.8278951 -1.361862 0.036894683 1.2046164 -0.52822334 -1.2894173 -0.86824465 0.9471046 0.597862 0.58492094 
http://www.co-ode.org/ontologies/pizza/pizza.owl#Germany 0.32423785 0.54768384 0.06763921 -0.0038544512 0.00018912496 -0.30041412 -0.30516183 -0.26260796 0.09950652 0.19706944 -0.03307409 -0.12390741 0.0027779413 -0.1048943 -0.06445358 -0.3157857 -0.4717776 -0.09671046 -0.114675134 0.04661129 -0.32688925 -0.13368204 0.07518141 -0.022627901 0.097494334 
http://www.co-ode.org/ontologies/pizza/pizza.owl#RedOnionTopping 0.3366118 0.63441366 -0.26125064 -0.29301426 -0.13655189 -0.42606914 -0.2879986 -0.17965871 0.034074716 0.28393146 0.20195544 0.16215697 0.5156265 0.16740683 -0.19476436 -0.5012662 -0.3418711 -0.39877635 0.101179056 -0.37261897 -0.35684642 -0.071901225 -0.01573902 -0.050769866 0.43493405 
http://www.co-ode.org/ontologies/pizza/pizza.owl#OnionTopping 0.46447235 0.7746574 -0.33398652 -0.3324488 -0.16655836 -0.6052484 -0.252505 -0.3320128 -0.106666 0.23974249 0.21876685 0.19953051 0.49361542 0.32432705 -0.14018299 -0.5410066 -0.34222868 -0.5188501 0.103617854 -0.5681821 -0.40467468 0.056464188 -0.2583812 -0.1052506 0.4273911 
_:Bcf631517X2Ddb62X2D4dfbX2D84ccX2D1cfd661a22e7 0.63621455 0.84396327 -0.1923619 -0.32492042 0.10658881 -0.7242852 -0.13882299 -0.33714128 -0.17236312 0.36464444 0.08975742 0.16240387 0.28957742 0.07472564 0.0984354 -0.61622304 -0.086713284 -0.43994737 0.21236654 -0.27590224 -0.56653315 0.08149171 -0.4981326 -0.17435165 0.3008763 
http://www.co-ode.org/ontologies/pizza/pizza.owl#Medium 0.797396 1.3449664 -0.08532086 -0.13832247 -0.24471456 -1.0436089 -0.3203615 -0.86068326 0.07738336 0.483954 0.083832264 0.1518031 0.26958725 0.53614414 -0.5562546 -0.62903017 -0.32775956 -0.51768714 -0.36029482 -0.49255264 -0.30509055 0.3466672 -0.12271365 -0.47473285 0.46646556 
http://www.co-ode.org/ontologies/pizza/pizza.owl#SweetPepperTopping 0.37267578 0.6726215 -0.23739593 -0.25029433 -0.1496424 -0.565706 -0.20440325 -0.26847333 -0.06424592 0.24809296 0.19867092 0.091527626 0.4297445 0.04873771 -0.24880093 -0.6445392 -0.24233401 -0.43942535 -0.009752809 -0.3175111 -0.41491553 0.06882858 -0.17968604 -0.10072469 0.29287255 
_:B4882bb1bX2D01fbX2D4825X2D95f1X2D4ebb6d9858e8 0.4429371 0.7350413 -0.14159329 -0.29391846 0.023184637 -0.6478962 -0.15391885 -0.2573295 -0.09253299 0.3186263 0.088652216 0.12685938 0.27649972 -0.04078287 -0.12197659 -0.65597147 -0.12194518 -0.34930784 -0.0026255597 -0.13802207 -0.4539587 0.10577157 -0.37619683 -0.15299873 0.15402792 
http://www.co-ode.org/ontologies/pizza/pizza.owl#PepperTopping 0.35825905 0.65435433 -0.48744506 -0.3843826 -0.48264584 -0.4752941 -0.511532 -0.49363253 -0.30549482 0.3877146 0.48628247 -0.018929016 0.6215453 0.7447223 -0.38083982 -0.5202669 -0.46097028 -0.79806435 0.22959009 -0.6491541 -0.4899389 -0.025837349 0.25231 -0.20259298 0.47634253 
http://www.co-ode.org/ontologies/pizza/pizza.owl#RosemaryTopping 0.4035035 0.8518314 -0.33174634 -0.3283657 -0.3849891 -0.8044186 -0.25657463 -0.6104401 -0.21273291 0.3485888 0.34248775 -0.018299134 0.15802746 0.45315588 -0.31531736 -0.59463245 -0.19658841 -0.46135032 -0.018903825 -0.41293365 -0.43281913 0.12795602 -0.103928916 -0.38645428 0.4138354 
_:B385bf785X2Da068X2D4463X2Dab50X2D62718e12084f 0.4802076 0.88074327 -0.16620931 -0.3584202 -0.12916492 -0.8652507 -0.21664979 -0.4705264 -0.2447279 0.42760643 0.19102828 0.11211477 0.17142394 0.21006955 -0.19952227 -0.66267866 -0.06495592 -0.46562013 0.030860884 -0.23849793 -0.55734134 0.17514306 -0.40928695 -0.29016 0.24498023 
http://www.co-ode.org/ontologies/pizza/pizza.owl#HerbSpiceTopping 0.245861 0.7873785 -0.48467892 -0.21908514 -0.7067019 -0.4776377 -0.37685695 -0.50723046 -0.2215776 0.14846283 0.25970036 -0.20073757 0.4229731 0.6691145 -0.40102834 -0.66502666 -0.36063227 -0.3550612 0.4009391 -0.57673204 -0.41572636 -0.21764788 0.17799802 -0.11257849 0.5978381 
http://www.co-ode.org/ontologies/pizza/pizza.owl#Cajun 0.19804277 0.30336013 -0.44496986 -0.79889554 0.013167176 -0.27471086 -0.24221642 0.00512201 0.35640657 0.30311978 0.25601244 0.40408194 0.5829835 -0.31559926 0.19586872 -0.660228 -0.47252068 -0.2649614 0.24437562 -0.27507168 -0.23230341 -0.19546807 -0.13658877 0.29488072 0.6625663 
_:B0f2bc47eX2D2874X2D4208X2Dba08X2Dbb62549edf0d 0.08096111 0.45291346 -0.32310048 -0.5940927 -0.23063093 -0.3207128 -0.07587006 -0.00916476 0.07863556 0.25320464 0.18105578 -0.026661195 0.34046778 -0.13116632 0.14395353 -0.64805824 -0.32443517 -0.23940714 0.67191726 -0.057216078 -0.56239396 -0.2878161 0.0704139 0.12796752 0.34225705 
_:B1acd6cb2X2D5418X2D48d7X2Db7cdX2Dd79be65a0ecc 0.09397379 0.53533274 -0.31300104 -0.5941543 -0.15964288 -0.31315818 -0.06906122 -0.03572702 0.030246748 0.2136347 0.14610024 -0.03024298 0.34258804 -0.22103721 0.11291576 -0.6872937 -0.25802347 -0.161726 0.6516229 -0.0583499 -0.56623656 -0.21894738 -0.025507454 0.13677913 0.28917137 
_:Bf943d547X2D194bX2D48ceX2D8ea7X2D83aa47d42943 0.13126536 0.45899457 -0.3278782 -0.6824495 -0.21196862 -0.39714172 -0.059235696 -0.024796696 0.053427096 0.26394707 0.22785889 0.06780293 0.4293954 -0.09679152 0.1598116 -0.6030928 -0.29477787 -0.3151478 0.7112788 -0.13188285 -0.49504125 -0.19442701 -0.002012894 0.07437852 0.3263852 
_:B43dd9e14X2D1bb3X2D46bbX2D90f8X2D88168227db17 0.15590255 0.555282 -0.3115575 -0.538124 -0.15302189 -0.2697946 -0.10665893 0.032093264 0.088165894 0.16303115 0.08865395 0.06347626 0.4745608 -0.15947999 0.096996166 -0.6672971 -0.3334368 -0.15681484 0.5867482 -0.06746933 -0.50717485 -0.21934731 -0.025517534 0.16331635 0.361123 
_:B7b67f117X2D0dcdX2D4775X2D994dX2D43297d25ea1d 0.29144645 0.50735813 -0.41668898 -0.592412 -0.15761076 -0.4160841 -0.046805874 -0.019665007 0.03836843 0.22025077 0.11319718 0.06135616 0.6026838 -0.26336125 0.14652835 -0.5806031 -0.20874171 -0.364014 0.6853475 -0.2055387 -0.5422083 -0.12566492 -0.05784826 0.12988617 0.31929144 
_:Bee73462dX2Dae66X2D4fadX2Dbf6dX2De0b9c4043200 0.09413369 0.4495915 -0.35930926 -0.62272453 -0.13833824 -0.23808609 -0.06681014 -0.0017689129 0.022486014 0.19148788 0.12767975 -0.009547016 0.30279785 -0.20704557 0.20010495 -0.63139886 -0.33132255 -0.18908754 0.688628 0.007988657 -0.6108206 -0.2495776 0.07267078 0.13265355 0.35657933 
http://www.co-ode.org/ontologies/pizza/pizza.owl#TobascoPepperSauce 0.28265247 0.6860473 -0.24796948 -0.31421468 -0.23085973 -0.53521985 -0.1922044 -0.2408678 0.045135103 0.21369405 0.1573204 0.12289275 0.35573635 0.1268479 -0.2666488 -0.6213734 -0.23621023 -0.38397452 -0.015743135 -0.2943045 -0.39962956 -0.06508205 -0.11495453 -0.15170261 0.26964635 
_:B6062ef30X2Df043X2D4738X2Da2fcX2D8ff8fe1c9eb6 0.08545714 0.5252244 -0.1846237 -0.51514477 0.0027786496 -0.16963612 -0.20107171 -0.039496295 0.13775526 0.1826251 0.074918285 -0.054126035 0.28382155 -0.28040528 0.07284219 -0.6084874 -0.48723015 -0.11653873 0.39777172 0.09365713 -0.47680554 -0.23587523 0.08537699 0.12909847 0.31155637 
_:B38b721f1X2D79eaX2D483bX2D9151X2Db7e7cabf0fd4 0.23351677 0.36779377 -0.054151416 -0.16438729 0.006706615 -0.26510838 -0.22700225 -0.13334721 0.07502792 0.20898037 0.04223281 0.06703934 0.20113893 -0.114873044 -0.08272575 -0.42241883 -0.48904032 -0.086377144 -0.09311613 -0.08362141 -0.27924964 0.032296274 0.08772369 -0.03665509 0.38273737 
http://www.co-ode.org/ontologies/pizza/pizza.owl#SauceTopping 0.116207466 0.61523515 -0.34868518 -0.2096901 -0.50586617 -0.3382091 -0.329536 -0.2681108 -0.050209254 0.08290888 0.13840148 -0.089566916 0.35023144 0.38209355 -0.32839695 -0.55601126 -0.3860616 -0.28012368 0.23718594 -0.39728126 -0.37697873 -0.2246857 0.14881434 -0.057431404 0.4330726 
_:Bb6a014efX2Dbd30X2D48d7X2D882aX2Dc2854037b16d 0.40307173 0.7590993 -0.10606824 -0.22027743 0.07440098 -0.6153372 -0.1200347 -0.20139813 -0.0031281156 0.34710848 0.08543698 0.18549754 0.22834204 0.013262843 -0.15801133 -0.6082521 -0.18452787 -0.28855368 -0.04126442 -0.16772686 -0.46315616 0.015336778 -0.28165537 -0.16691047 0.17666507 
http://www.co-ode.org/ontologies/pizza/pizza.owl#Hot 0.68057716 1.0707343 -0.056648344 -0.09394742 -0.26441336 -1.0354992 -0.3051862 -0.79130054 0.13462223 0.49590865 0.12516716 0.09258629 0.0999874 0.20013843 -0.50292325 -0.7214598 -0.3607508 -0.49187115 -0.50645804 -0.2994784 -0.31834677 0.29283607 -0.085180506 -0.51471025 0.33350435 
http://www.co-ode.org/ontologies/pizza/pizza.owl#PeperonataTopping 0.41597417 0.8020298 -0.27185968 -0.2188305 -0.059032336 -0.53413594 -0.17071392 -0.17296697 0.009290452 0.20047073 0.19414946 0.28646204 0.5869943 0.18002233 -0.2895483 -0.6489466 -0.24981059 -0.4536374 -0.079506055 -0.51156557 -0.37644425 0.022470504 -0.24246113 -0.16598494 0.3611468 
_:B02f956b2X2Db4f8X2D4e0aX2D8f26X2Ddaf477ff73a6 0.5638442 0.7862589 -0.17527671 -0.2949216 0.07760003 -0.7074359 -0.04506258 -0.19893017 -0.11873969 0.35446808 0.09963863 0.248133 0.42573392 0.03238098 -0.0712006 -0.7237128 -0.050480507 -0.4129393 0.06761965 -0.20657666 -0.5009015 0.19096054 -0.50136465 -0.17725793 0.2550846 
_:Bdbd53dbbX2D8347X2D402dX2Db4ceX2D241ee8955f54 0.24416241 0.29876748 -0.047360152 -0.11245155 0.06759037 -0.2692763 -0.20683846 -0.18243109 0.07024919 0.21656466 0.014216671 0.0099959485 0.1368456 -0.21099241 -0.05604665 -0.34219617 -0.3891871 -0.14678055 -0.13455492 -0.03942667 -0.23562475 0.09782871 0.057598256 -0.044066895 0.28988415 
_:B45b5ff06X2D539fX2D41e5X2D82acX2D6bc9245fa296 0.06388877 0.104641 0.020166513 -0.04062006 0.0631248 -0.07152199 -0.046320736 -0.033408623 0.014991645 0.0796411 0.009582248 -0.015350318 0.053797692 -0.0892967 -0.0035672141 -0.116031274 -0.15926944 -0.007966214 -0.00760654 -0.016146982 -0.11931398 0.02062789 0.017187845 0.022633307 0.093098946 
http://www.co-ode.org/ontologies/pizza/pizza.owl#Caprina 0.03572073 0.2642052 -0.47375616 -0.9565527 -0.06368724 -0.1874727 -0.4192538 0.06507652 0.5391851 0.17527866 0.33513924 0.5009882 0.86766195 -0.7229603 -0.004687435 -0.67640626 -0.63914126 -0.17951268 0.12524351 -0.21552132 -0.08030805 -0.26839754 -0.11422567 0.50680894 0.5894026 
_:B1a3d8dcbX2D69bbX2D4db1X2Dbb57X2Df881e2afc8b0 0.020257419 0.40914634 -0.36436462 -0.6781663 -0.04631818 -0.11022985 -0.17806587 0.054335415 0.1598138 0.17197274 0.10935988 0.046236116 0.41461203 -0.3829972 0.18193515 -0.6660698 -0.4855853 -0.13637267 0.5107273 0.09953861 -0.5187074 -0.2894848 0.12301788 0.222727 0.35421753 
_:Baa44ba4cX2D7393X2D4302X2D8234X2D08f22411127e 0.18931168 0.3882865 -0.44222695 -0.62515646 -0.20439988 -0.27372107 -0.048322394 0.09586152 0.049480543 0.17896636 0.10918013 0.05198741 0.58989924 -0.40385056 0.12871644 -0.6273248 -0.34823132 -0.27170423 0.6930199 -0.04323952 -0.5733916 -0.2672294 0.11562066 0.16683426 0.31981674 
_:B975da81cX2Dce59X2D4665X2Dbe9eX2D89bc3aa511a7 0.18884207 0.45018825 -0.45332628 -0.630443 -0.15305842 -0.23639809 -0.07552679 0.091838546 0.038903534 0.13599247 0.065549046 0.048623316 0.65068483 -0.3707154 0.13131379 -0.6705716 -0.32652763 -0.25777316 0.740407 -0.027091488 -0.59796363 -0.21188073 0.08216198 0.2374152 0.36327243 
_:B14228597X2Dbd93X2D4989X2D917dX2Dcd11c44434ee 0.16477588 0.45995808 -0.44462442 -0.7021506 -0.21058752 -0.36459264 -0.041643806 -0.0066665392 0.04964388 0.16452761 0.1424062 0.06501068 0.5604457 -0.40307796 0.15983711 -0.7115425 -0.3642049 -0.23249546 0.6374069 -0.09635813 -0.52287376 -0.17686607 0.0663718 0.1235399 0.32593095 
_:B449b30daX2D9355X2D4dddX2Da778X2Dcfa162dbd02d 0.19112097 0.37245286 -0.029512499 -0.16729668 0.010803379 -0.26340252 -0.18628946 -0.12692139 0.111849196 0.21260488 0.034835923 -0.019152971 0.17624745 -0.20935161 -0.053826142 -0.42750812 -0.45928788 -0.095824115 -0.03761375 0.024548706 -0.2827218 0.023533236 0.074700974 0.006038923 0.26042634 
http://www.co-ode.org/ontologies/pizza/pizza.owl#GoatsCheeseTopping 0.32063273 0.6275436 -0.3566836 -0.281898 -0.21203905 -0.5406266 -0.23710419 -0.32437208 0.071481064 0.16783182 0.22622679 0.14353535 0.4584042 -0.13487619 -0.30543092 -0.60114473 -0.21361604 -0.46488097 -0.07498008 -0.3299795 -0.35745898 -0.013629605 -0.14051652 -0.10591026 0.19072261 
_:B95465300X2De126X2D493eX2DbceeX2D995941f4aab6 0.120584436 0.5577601 -0.46932688 -0.71520454 -0.18155938 -0.21989335 -0.0795837 0.033678696 0.0544273 0.13624749 0.17207076 0.005520676 0.5294605 -0.31604406 0.11166377 -0.7436435 -0.34023154 -0.23547032 0.70337605 -0.0034080236 -0.61035514 -0.29898068 0.07109145 0.22363672 0.31142402 
http://www.co-ode.org/ontologies/pizza/pizza.owl#SundriedTomatoTopping 0.4981726 0.9095885 -0.33619756 -0.41781956 -0.15625735 -0.66022646 -0.45573837 -0.48420995 -0.21216647 0.37291196 0.4767047 0.10766306 0.49783105 0.4614907 -0.4322919 -0.5209465 -0.27139536 -0.6352901 -0.075936995 -0.5830649 -0.36627862 0.16430865 -0.1860323 -0.16758557 0.4672185 
_:Bd0d24c32X2D6966X2D4665X2Da77dX2D222f1c48580a 0.15787241 0.2796507 0.018261643 -0.14263333 0.054869447 -0.2457836 -0.20013991 -0.13299397 0.08463184 0.18760063 -0.007911582 0.006154758 0.10208027 -0.23178868 -0.07423634 -0.4004834 -0.40367043 -0.021929193 -0.12238487 0.030960515 -0.244828 0.050771926 0.079222575 0.013267212 0.27763104 
_:Ba8c1a03cX2D6183X2D4008X2D86f2X2Dbb12983bfef9 0.08570014 0.1720566 -0.0036435882 -0.05197877 0.038466588 -0.13379586 -0.088963404 -0.0525775 0.047771905 0.09698819 0.014093744 -0.00055393367 0.07069999 -0.06210861 -0.05151447 -0.18091229 -0.19683135 -0.015503271 -0.07719544 -0.02002837 -0.12716311 -0.006048655 0.070033975 -0.0008527624 0.100128986 
_:Bdf56799cX2D1627X2D4d9aX2Da308X2Da99763682994 0.4080886 0.69816214 -0.15923299 -0.34028798 -0.033095848 -0.5764009 -0.20387922 -0.22349903 -0.10531456 0.2799261 0.14688233 0.12218464 0.35375977 -0.044676982 -0.13217086 -0.63958114 -0.17692007 -0.3715783 0.09031286 -0.17426056 -0.45754132 0.07443264 -0.30046964 -0.08902204 0.20513478 
_:Baa62a9ecX2D82d7X2D401eX2Db4c1X2D64e11ee8d399 0.50610924 0.9190704 -0.18383811 -0.46123 -0.040806606 -0.7732628 -0.21583635 -0.4537777 -0.26847807 0.31660017 0.20460603 0.14144051 0.23577835 0.21221639 -0.16745639 -0.74784964 -0.085858986 -0.44459033 0.026392486 -0.27460682 -0.5295707 0.16435046 -0.4685323 -0.21481226 0.20163949 
http://www.co-ode.org/ontologies/pizza/pizza.owl#SlicedTomatoTopping 0.4964014 0.8441759 -0.3905261 -0.27444866 -0.16692066 -0.6613653 -0.2911417 -0.4201927 -0.123548925 0.30279508 0.44830617 0.08409168 0.5667042 0.38866267 -0.41119844 -0.5246581 -0.25322327 -0.66438645 -0.09884924 -0.6346615 -0.2462055 0.24831332 -0.071245074 -0.29545352 0.51637393 
_:B5aa9b307X2D8077X2D46e4X2D95b9X2D1bb34879eebe 0.44642296 0.7582153 -0.11231464 -0.3125212 0.018052727 -0.6063286 -0.1649721 -0.2176885 -0.13398181 0.26926494 0.0358618 0.16623153 0.2865676 0.037690613 -0.12452827 -0.6373949 -0.16066578 -0.30029613 0.020799879 -0.1893595 -0.44159904 0.04074018 -0.34912837 -0.1724402 0.16957071 
http://www.co-ode.org/ontologies/pizza/pizza.owl#SpicyPizza 0.20797873 0.46871194 0.16384888 -0.041218676 0.050448954 -0.36350283 -0.352771 -0.3608907 0.13485517 0.28208634 -0.08861176 -0.053007614 -0.1551749 -0.31108522 -0.12659001 -0.46825388 -0.71236473 -0.038421504 -0.39215568 0.17070758 -0.36131242 0.14117748 0.16072886 -0.084781036 0.3052213 
_:B69b5f6b0X2D6a6dX2D41cbX2D8bb4X2Dadde7bd72b06 0.21753025 0.4296832 0.18167363 -0.05772669 0.070789196 -0.444238 -0.32368177 -0.2563205 0.2252661 0.31067088 -0.14763801 -0.06434882 -0.100224234 -0.43954718 -0.11960064 -0.5925536 -0.88217586 -0.021079728 -0.5302664 0.29181564 -0.3369824 0.2253348 0.27379128 -0.15891264 0.36351067 
_:B0422f26aX2Dfa0fX2D4646X2Dbd3cX2D85eeb4592f29 0.16775027 0.35530415 0.051882166 -0.096198715 0.07026278 -0.32851362 -0.25440356 -0.2352472 0.17945853 0.2272743 -0.14330113 -0.12246048 -0.062902294 -0.5245512 -0.060938384 -0.531889 -0.9271322 -0.01729425 -0.4720809 0.27742097 -0.3358597 0.18538636 0.42237082 -0.19524847 0.37234843 
_:B8311f6d1X2D96c5X2D48b4X2D9affX2D971d6d682d3e 0.1618982 0.27254412 0.04948521 -0.08828695 0.09102434 -0.24870533 -0.18043092 -0.09238188 0.15076709 0.22348787 -0.05763857 0.01733828 0.048923735 -0.26930222 -0.04733688 -0.3317195 -0.4539122 0.0009942458 -0.18438347 0.08583622 -0.20937909 0.08481747 0.08937944 -0.053203855 0.24219927 
_:B20c3a12bX2D6877X2D4988X2D86beX2Df29ccf6ca699 0.083817326 0.16397397 -0.041260153 -0.024652306 -0.017586758 -0.0923399 -0.08744352 -0.06036052 0.06022253 0.06642987 0.0006039179 -0.02702209 0.067535974 -0.06998306 -0.053844173 -0.17567834 -0.17279866 -0.03484496 -0.050298154 0.012283137 -0.13011469 0.038649213 0.07122541 0.0028682712 0.13415578 
http://www.co-ode.org/ontologies/pizza/pizza.owl#PeperoniSausageTopping 0.41970143 0.64297646 -0.28796145 -0.26373097 -0.33880508 -0.6401579 -0.2678861 -0.4110282 -0.1077917 0.2761773 0.325341 0.11658674 0.48034766 0.16494654 -0.36221072 -0.5508976 -0.2609981 -0.49884155 -0.05875754 -0.45697203 -0.33532736 0.08791286 -0.13343391 -0.14758874 0.2930815 
_:B5e876945X2Dba67X2D4c6cX2D9b8bX2D2d2158864b6c 0.48885176 0.81845826 -0.20457034 -0.33652607 -0.026846437 -0.66184527 -0.19902605 -0.31613806 -0.085956626 0.36749694 0.2060336 0.13277413 0.37385014 -0.020906368 -0.22146085 -0.66331786 -0.10806112 -0.46693417 0.017305976 -0.15520488 -0.43578833 0.123988435 -0.43010938 -0.14828768 0.19660437 
http://www.co-ode.org/ontologies/pizza/pizza.owl#ParmaHamTopping 0.22885431 0.60280985 -0.2149068 -0.35285062 -0.13979273 -0.43971905 -0.2768432 -0.21679252 -0.014880763 0.20662767 0.21417682 0.17334339 0.4343532 -0.07076177 -0.33196053 -0.6297539 -0.20884287 -0.4195592 -0.069863215 -0.26897848 -0.4435468 0.06363374 -0.16836026 -0.042925805 0.25170434 
_:B0ace02f1X2D35beX2D4574X2Da4eaX2Dfac041638774 0.34825346 0.6834702 -0.18168071 -0.36832374 0.022333395 -0.48980346 -0.23104587 -0.2644212 -0.11425324 0.2704016 0.13052723 0.14587103 0.25635624 -0.07339395 -0.15126674 -0.6351904 -0.082943484 -0.3404339 0.08591468 -0.13697235 -0.48467934 0.06124176 -0.3184696 -0.0482066 0.16813815 
http://www.co-ode.org/ontologies/pizza/pizza.owl#HamTopping 0.15667309 0.6025695 -0.29439732 -0.3116653 -0.47030577 -0.3953334 -0.43030792 -0.39948395 0.017073767 0.17759198 0.3368684 0.01575308 0.4447658 0.21639371 -0.4625342 -0.48341796 -0.3817125 -0.537135 -0.0651054 -0.35866806 -0.36437234 -0.04550622 0.10088031 -0.07570881 0.30490485 
http://www.co-ode.org/ontologies/pizza/pizza.owl#ArtichokeTopping 0.26578003 0.6700626 -0.2526251 -0.3717495 -0.31475294 -0.5732894 -0.26145807 -0.2020148 -0.026739605 0.27021015 0.25320238 0.115575284 0.48072934 0.14174154 -0.35431045 -0.6454319 -0.21624742 -0.4875423 0.048114974 -0.30734134 -0.44060534 -0.027577182 -0.1066566 -0.1208286 0.20023367 
_:B5c4bb8edX2Dfbc9X2D4475X2D9bf3X2D74e43fec345e 0.47130793 0.7497847 -0.22219576 -0.30505297 -0.067399144 -0.680756 -0.184516 -0.31777063 -0.1299864 0.36339214 0.19753377 0.09006335 0.30654284 -0.0012842605 -0.19256562 -0.62125105 -0.05232199 -0.4284764 0.13192503 -0.19258706 -0.5077591 0.009533331 -0.32348904 -0.12659307 0.10453324 
http://www.co-ode.org/ontologies/pizza/pizza.owl#SpicyPizzaEquivalent 0.2524517 0.48731446 0.16376738 -0.014701039 0.04735566 -0.3688619 -0.3651593 -0.3262749 0.20095207 0.25950256 -0.07966013 -0.088412896 -0.14846006 -0.26529396 -0.08825279 -0.48670122 -0.76161337 -0.03797677 -0.43864375 0.1644109 -0.34866467 0.08015741 0.16996138 -0.09215881 0.2964647 
_:Ba2ac8b58X2Dc32bX2D4b28X2Da74aX2D56d9e58de032 0.22897464 0.43276742 0.114965335 -0.041500375 -0.0017349512 -0.37367308 -0.34733403 -0.2580232 0.22295552 0.2666308 -0.14915241 -0.14828241 -0.09870279 -0.3971441 -0.10947165 -0.5229222 -0.94849384 -0.02428925 -0.48236367 0.25754046 -0.33237633 0.119817436 0.38845295 -0.15574849 0.41791874 
_:B03d7d41fX2Dbdf9X2D428aX2DbcfcX2Dbad7ca16ecd7 0.1828877 0.36605987 0.06712285 -0.1148258 -0.038358223 -0.37329713 -0.2688306 -0.20196739 0.15421276 0.22661562 -0.12052768 -0.122033685 0.00815144 -0.39902768 -0.11443494 -0.5369217 -0.91635734 -0.040045388 -0.35396153 0.23531215 -0.3147081 0.13861969 0.4539971 -0.19138755 0.4226612 
_:B5b6e6513X2Dd3c9X2D4604X2Db871X2D59f11cf65412 0.14385551 0.29320848 0.054921053 -0.075870894 0.03923594 -0.22688301 -0.2403818 -0.14009714 0.13858402 0.21391934 -0.014952968 0.011554023 0.08110052 -0.21601416 -0.11485314 -0.36081985 -0.4595021 0.00842358 -0.20482408 0.055253554 -0.24182135 0.03723145 0.07616993 0.0005614202 0.26390433 
_:B5d9216f2X2D88d1X2D481fX2D9105X2Daf4558ad23f2 0.0819633 0.13420454 0.003485891 -0.016293513 -0.0022392138 -0.114881516 -0.07509261 -0.09584027 0.019890016 0.1187721 0.00062235625 -0.01500389 0.022715824 -0.13669333 -0.050573178 -0.19699603 -0.2022984 -0.046095766 -0.065376796 0.03662397 -0.098700374 0.06837032 0.061059333 -0.039405778 0.12809664 
http://www.co-ode.org/ontologies/pizza/pizza.owl#OliveTopping 0.5848054 0.6139773 -0.36107183 -0.15605694 -0.3298744 -0.49203813 -0.21581693 -0.45772335 -0.17559972 0.17589433 0.39779648 -0.014474004 0.67676723 0.14983715 -0.39808083 -0.5569309 -0.30419675 -0.6597104 0.13891904 -0.71528727 -0.4907907 0.13143383 -0.09482842 -0.08174816 0.21619986 
_:B7329e19cX2Ddd8aX2D4456X2Dba56X2D89583b971418 0.6615158 0.8743085 -0.2740784 -0.2503333 -0.044985875 -0.76489973 -0.15743655 -0.3925714 -0.13514274 0.32956743 0.29546443 0.07129025 0.529698 -0.06548579 -0.16450462 -0.6848367 -0.045872606 -0.71111333 0.11757058 -0.33480772 -0.42809272 0.20106246 -0.5493963 -0.17191081 0.18192047 
http://www.co-ode.org/ontologies/pizza/pizza.owl#JalapenoPepperTopping 0.29585776 0.6531156 -0.26250243 -0.28304476 -0.18531379 -0.54806745 -0.26246497 -0.26721597 -0.019391794 0.2800231 0.27973762 0.12889118 0.47525388 -0.0075442917 -0.38651353 -0.6156946 -0.20796701 -0.52823436 -0.068764016 -0.37463444 -0.4054176 0.0961778 -0.13716678 -0.10124321 0.26785302 
_:B1e5ace0dX2D7864X2D43c4X2Dbec4X2D22c23e6a2542 0.4440906 0.73848134 -0.18810962 -0.31253818 -0.05036573 -0.62731695 -0.16307895 -0.34887958 -0.1222592 0.33779246 0.22225377 0.1252479 0.2799328 -0.07928915 -0.2141256 -0.63962 -0.07755637 -0.39477006 0.07514166 -0.194076 -0.49884468 0.08597113 -0.3440371 -0.11682729 0.12244122 
http://www.co-ode.org/ontologies/pizza/pizza.owl#MushroomTopping 0.460767 0.6530522 -0.31127912 -0.17923957 -0.32335305 -0.62266105 -0.23177801 -0.43960428 -0.18521145 0.20988752 0.35288364 0.048760977 0.59915006 0.09502949 -0.39713138 -0.6683004 -0.20888552 -0.6558123 0.0711836 -0.609902 -0.47080073 0.17636392 -0.14236991 -0.16524012 0.22718331 
_:Bb9214604X2D69c4X2D4defX2D855eX2Dcae58c7b776c 0.604813 0.8435315 -0.15888326 -0.18885025 0.06700326 -0.6787573 -0.18611667 -0.33590937 -0.16441762 0.40142366 0.20650741 0.10452351 0.44265017 -0.05190311 -0.22600016 -0.71870875 -0.018117618 -0.4848354 0.06562486 -0.24756233 -0.49789047 0.17172575 -0.47400424 -0.14348516 0.14820126 
http://www.co-ode.org/ontologies/pizza/pizza.owl#American 0.15188187 0.13827898 -0.20972678 -0.76083183 -0.13674057 -0.12758431 -0.5821812 -0.11835109 0.21156375 0.5669213 0.56041104 0.41179258 0.85604125 -0.67775124 -0.43670148 -0.5813404 -0.2649527 -0.38294667 0.20688194 -0.13793053 -0.26273698 -0.04753605 -0.07933774 0.46579307 0.41088283 
_:Ba81fa877X2Dd1e1X2D4f75X2Db25aX2D7579b0326ee2 0.28982452 0.35446462 -0.4286401 -0.69314206 -0.18160665 -0.33052936 -0.070900746 -0.0010441304 0.031728018 0.2978779 0.32920048 0.021314032 0.71083045 -0.53498846 0.077052355 -0.5869583 -0.17811196 -0.33252114 0.6952438 -0.030203283 -0.40738696 -0.0944686 0.040222984 0.18896875 0.22341815 
_:B100cf9c8X2D16f3X2D44d5X2Dac6aX2Db935ef641ce6 0.2330023 0.4476381 -0.4697991 -0.7816492 -0.36570698 -0.42092207 -0.17465068 -0.10765818 -0.020116765 0.28837532 0.31553546 0.030517641 0.5246591 -0.30236518 0.029156392 -0.66107494 -0.24620289 -0.32264012 0.70497495 -0.0434843 -0.5496107 -0.21561868 0.012348201 0.17046028 0.2589868 
_:B563ca2fcX2Dbb29X2D46d1X2D9cedX2D5deae0239457 0.12208635 0.5122129 -0.36713067 -0.70730525 -0.10429885 -0.24552952 -0.21992664 0.031528316 0.12630925 0.30212617 0.26363847 0.005378243 0.5262946 -0.36781844 0.049983032 -0.7086956 -0.35669947 -0.22141618 0.55609584 0.12676184 -0.6212515 -0.29517642 0.063308686 0.2509094 0.25433013 
_:B0738ae84X2D3c71X2D4e4dX2DbfbeX2D8c474a6e44d2 0.27219597 0.5580348 -0.5002207 -0.71077776 -0.17533007 -0.45215863 -0.12565258 0.0009788692 0.07307033 0.34893262 0.30935884 0.08903185 0.66901946 -0.38745663 0.087936744 -0.6952206 -0.1278171 -0.4733201 0.69720316 -0.08840392 -0.58041716 -0.15131052 -0.07128244 0.17077848 0.33355936 
_:B2825fbe0X2Daf7fX2D47f5X2D956aX2D5928d6938867 0.32782036 0.552338 -0.06378342 -0.15488613 0.039540723 -0.34595737 -0.27736723 -0.21585926 0.08397433 0.17591254 0.0014968025 0.06539577 0.30700067 -0.15705356 -0.18228874 -0.44708347 -0.42673668 -0.1327906 -0.10739405 -0.13025995 -0.34807727 -0.046837017 -0.0048299246 0.015255464 0.22937547 
_:B90486d08X2D7aacX2D411eX2Db879X2Df01a03e0869a 0.2625155 0.33048078 -0.023200927 -0.11736147 0.038564783 -0.30906624 -0.20447646 -0.15732948 0.08448127 0.25237024 0.062128656 0.007235243 0.2038031 -0.23838528 -0.069528066 -0.4253652 -0.45435053 -0.121966824 -0.06338578 0.0013598622 -0.25906757 0.06271689 0.0993733 -0.051854957 0.3051996 
_:B55c93f87X2D02f2X2D44beX2Da159X2D84a002d54efa 0.18656452 0.26106858 0.014150212 -0.1349901 0.088906795 -0.27085906 -0.14960723 -0.06738257 0.07559737 0.25834706 0.009150684 0.061047036 0.18735111 -0.20740034 -0.05903971 -0.38236815 -0.39363697 -0.097377576 -0.06306222 0.025058905 -0.2328252 0.13214326 0.06473724 -0.027627517 0.28202686 
_:B034bdabeX2D72e2X2D4c6aX2D9cd2X2D87b74f3940c1 0.08402362 0.16580254 -0.010446115 -0.05826025 0.04096876 -0.1122349 -0.050094936 -0.033049196 0.022451025 0.07307502 0.00079394184 -0.009641117 0.09767925 -0.091770224 -0.028111618 -0.16744438 -0.19062628 -0.021750845 -0.013947594 0.003036717 -0.11291978 0.030067448 0.027603993 -0.009919926 0.08970199 
http://www.co-ode.org/ontologies/pizza/pizza.owl#ParmesanTopping 0.46062246 0.6910543 -0.21941483 -0.17096493 -0.29336962 -0.61034524 -0.22504674 -0.35468268 -0.1451393 0.22385654 0.28197342 0.11976472 0.5453932 0.06088165 -0.49265036 -0.6160997 -0.24574676 -0.4458427 -0.040057987 -0.4724623 -0.47602487 0.06336907 -0.08272159 -0.1995892 0.1816928 
_:B4af6c026X2Dbe2dX2D487fX2Dab7fX2Dc6ce56a1580f 0.5882734 0.8883791 -0.15355709 -0.25601017 0.043743096 -0.6705694 -0.21216531 -0.27399367 -0.20131464 0.36046395 0.10933669 0.1867475 0.40180132 0.033647202 -0.27874327 -0.7365569 -0.05130517 -0.45853 -0.033191733 -0.21559723 -0.53888005 0.10874007 -0.41451696 -0.19947188 0.106153436 
http://www.co-ode.org/ontologies/pizza/pizza.owl#Parmense -0.116696335 0.0955959 -0.26085943 -0.6462024 -0.33432063 -0.19873448 -0.5421256 -0.086558536 0.16416936 0.64158714 0.5865157 0.17719902 0.87690365 -0.9889741 -0.7085443 -0.630871 -0.1502302 -0.39133853 0.37794504 -0.06905435 -0.55855685 -0.12390523 0.23468012 0.42883328 0.18911248 
_:Bf8a3c043X2Dbfd1X2D4ae4X2D88cbX2D058567687f57 0.1374907 0.467296 -0.30648124 -0.6255889 -0.2580156 -0.29152364 -0.18575947 -0.054613985 -0.007946117 0.2993617 0.3299223 -0.06427874 0.50245005 -0.23468708 -0.032503977 -0.6360403 -0.18737954 -0.36883456 0.6088995 0.06090147 -0.53303766 -0.16703653 0.04422161 0.15430182 0.16836351 
_:Bfe6fe76bX2Db3b8X2D43deX2D8f0dX2Deeca43e7341a 0.14341454 0.39724207 -0.4145185 -0.67272925 -0.26263264 -0.30284932 -0.102927685 0.024733318 -0.089743994 0.27684492 0.24489039 -0.06424013 0.6158921 -0.31778812 -0.009593457 -0.71281815 -0.25716382 -0.27858776 0.74323064 0.08130344 -0.66980827 -0.13254192 0.15677951 0.19460551 0.25553793 
_:B10253e1cX2D4b5bX2D44d6X2D8431X2D25d973a20fa7 0.31613284 0.37245014 -0.45506945 -0.6417505 -0.23267177 -0.4025565 -0.15113834 -0.014332065 -0.03783156 0.3344462 0.2380146 0.035472836 0.6676679 -0.43782973 0.08243325 -0.63344103 -0.14825687 -0.47895998 0.73553926 -0.020444324 -0.61397165 -0.106544316 0.040812828 0.15891713 0.26861137 
_:Bfdbc138cX2D9132X2D4f03X2D986eX2D8578e69985d0 0.10837049 0.48223537 -0.40880805 -0.7071494 -0.22921018 -0.2730741 -0.1721564 0.09545564 0.03821062 0.23408854 0.11615257 -0.061354816 0.5754163 -0.3525649 0.0882072 -0.7629038 -0.33128357 -0.29299518 0.7371498 0.1381033 -0.72378606 -0.22373018 0.12323421 0.20801939 0.35551298 
_:Bf15427cbX2D24e5X2D4003X2D94f6X2Dd0dfbd9b63fd 0.024031548 0.36245444 -0.40670797 -0.6743393 -0.23308702 -0.21339674 -0.11901808 -0.007267934 -0.025011811 0.15877858 0.18771595 -0.0028276385 0.4915572 -0.4473715 -0.0118219545 -0.7060377 -0.2614551 -0.28712112 0.5557338 0.07659051 -0.596206 -0.14084956 0.13797961 0.18617347 0.3034983 
_:Bc8ae112fX2Dd074X2D43d7X2Dadb7X2D36e4c721537b 0.043779615 0.43253824 -0.36839935 -0.7101333 -0.16064334 -0.17281325 -0.17726721 0.09380992 -0.028273698 0.28603113 0.18284748 -0.083971255 0.48109043 -0.40619472 0.06591016 -0.7826978 -0.36586326 -0.19954221 0.816521 0.22630288 -0.77780735 -0.2897688 0.21296495 0.2244192 0.3114003 
_:B10df9fa4X2D0323X2D4e71X2D8c3fX2Deb88ed90761e 0.23083559 0.34252584 0.012911181 -0.13811566 0.04691994 -0.2627426 -0.19915454 -0.10976295 0.04540853 0.21869695 0.011015008 0.024924248 0.21721545 -0.19288915 -0.0829641 -0.38738325 -0.41781613 -0.10429785 -0.035382528 -0.01000832 -0.27359024 0.018120654 0.05317117 -0.026498795 0.2489888 
_:Bc1be008eX2Da1e5X2D4298X2Daf28X2D182fcdd2c19a 0.10535617 0.2310638 0.013241675 -0.10511806 0.040494945 -0.1961394 -0.07167673 -0.0015276422 0.084780574 0.15011239 -0.0044440255 0.02595674 0.11345477 -0.15446319 -0.011568243 -0.28536996 -0.23344558 -0.013853769 0.015875109 0.04178844 -0.2116739 0.029134164 0.038291074 0.02802677 0.13670944 
_:B49148b48X2Daf0dX2D469cX2D80acX2D506c1752565c 0.078257605 0.17853916 -0.0071474654 -0.06911891 0.006093766 -0.109812535 -0.09823707 -0.055109806 0.06416633 0.068660855 -0.00048493384 0.00083164894 0.06820792 -0.10291428 -0.027606308 -0.2154104 -0.18562847 -0.02494646 -0.03585323 -0.019687692 -0.12936671 -0.029070066 0.023681732 0.021287706 0.12793308 
http://www.co-ode.org/ontologies/pizza/pizza.owl#PrinceCarlo -0.19766791 0.3347626 -0.14499438 -0.48239398 0.05235184 -0.22189038 -0.17331327 0.3080571 0.39101672 0.66519696 0.62886757 0.30862364 0.9204065 -0.9080705 -0.69883746 -0.9051707 -0.08639357 -0.48822606 0.38120055 -0.34844542 -0.6339473 0.052423563 0.12346295 0.29028538 0.32676548 
_:B3f1784caX2Dd29fX2D47f3X2D877eX2D5e491301caf2 0.08673833 0.38081336 -0.38085917 -0.52411723 -0.19369432 -0.28690737 0.093229875 0.093930304 0.03627841 0.29135293 0.25060087 0.054375682 0.5705544 -0.40087998 -0.03249847 -0.74744916 -0.1919789 -0.2548591 0.71072936 -0.037135527 -0.4768027 -0.08381254 0.14533013 0.019937502 0.31795782 
_:Bf195f5f1X2D3d3cX2D4695X2D9ccdX2D02681095fa71 0.21215488 0.45194384 -0.5026548 -0.5500785 -0.18727505 -0.2924464 0.120868385 0.12041136 -0.01717233 0.2725935 0.23162223 -0.00462021 0.6389819 -0.43716964 0.044352747 -0.8182098 -0.19415061 -0.28497124 1.0286404 -0.0831381 -0.6615712 -0.21353763 0.18525748 0.118603066 0.31415993 
_:B935ba4d4X2De815X2D4564X2Dbf30X2D8d15e9967c91 0.12749517 0.5876249 -0.3013821 -0.57232565 -0.009971749 -0.1449587 -0.12642194 0.14736018 0.15115638 0.27379695 0.15925878 -0.042465843 0.5303634 -0.40545762 0.042280026 -0.79311395 -0.29967448 -0.16107954 0.69724315 0.15485409 -0.67698765 -0.29473484 0.037475973 0.26086465 0.24348682 
_:Bf65fdf10X2D9e11X2D418bX2D8e5fX2Dd87f87c9c1aa 0.13219202 0.3929793 -0.31601435 -0.56023514 -0.17852806 -0.22773942 -0.03926856 0.04419285 0.06428404 0.2747176 0.24214101 -0.005527269 0.5831675 -0.47749925 -0.024872685 -0.7606171 -0.2563912 -0.29793993 0.65750754 0.032219585 -0.5023198 -0.12505968 0.09705481 0.16029444 0.23503676 
_:B1777ac3bX2D2ca9X2D4f6dX2Dac2bX2D87c40bfbc423 0.14468831 0.2674753 -0.056245346 -0.11035159 -0.00020801328 -0.1567152 -0.073302284 -0.08337445 0.048263088 0.12271119 0.07320718 0.043417454 0.17910185 -0.095858015 -0.094039775 -0.27507874 -0.22183909 -0.115159735 -0.015794992 -0.09866426 -0.15772516 0.0012353766 0.034322985 -0.010410951 0.14791943 
_:B872d53e2X2D112aX2D4facX2D8b33X2D85e85293688d 0.1693566 0.5934826 -0.34220266 -0.540784 -0.16657126 -0.3514755 0.06537431 0.09516896 0.12303832 0.30153218 0.2851525 0.023940431 0.6271674 -0.3674373 -0.08619083 -0.8425885 -0.14691456 -0.25059715 0.64508694 0.021029474 -0.5356519 -0.15220685 0.038916998 0.08376647 0.15754238 
http://www.co-ode.org/ontologies/pizza/pizza.owl#LeekTopping 0.3716588 0.74536383 -0.33300146 -0.26293734 -0.14899227 -0.5738335 -0.114868164 -0.24135809 -0.058005292 0.20775995 0.2946459 0.20054041 0.57478607 0.023084987 -0.34482643 -0.6826846 -0.11284927 -0.58619267 0.021710478 -0.51406103 -0.4617804 0.14417574 -0.12692809 -0.22018443 0.21601202 
_:B819531c4X2D49c7X2D44dbX2D856eX2D432a2e7db7fd 0.27304435 0.49686995 -0.42434174 -0.664623 -0.07454593 -0.41490585 0.033077773 0.13639037 0.09870313 0.42581615 0.26139447 0.1910065 0.73536843 -0.51800257 0.06235774 -0.78729486 -0.13579398 -0.37909284 0.76843274 -0.078930564 -0.5519266 -0.09265623 -0.0043247277 0.13065465 0.28382614 
_:B4ff4fec6X2Dde2dX2D4833X2D8947X2Da03c4da26763 0.5319755 0.8199916 -0.15588804 -0.22705057 0.12762725 -0.63485205 -0.112814985 -0.2259511 -0.047438495 0.37201008 0.1869897 0.19248384 0.36126915 -0.021233317 -0.16535826 -0.67574644 -0.04468054 -0.47565892 -0.02108309 -0.24413441 -0.47965437 0.112798005 -0.38076478 -0.1916806 0.20834829 
http://www.co-ode.org/ontologies/pizza/pizza.owl#RealItalianPizza -0.12551422 0.5972254 -0.020819498 -0.3123445 -0.14780615 -0.148899 -0.36069843 -0.025029497 0.5155107 0.01814106 -0.14709373 -0.0053292625 -0.027428335 -0.57076573 -0.27506495 -0.90158516 -0.70634425 -0.12964122 -0.4992094 0.37311202 -0.43759185 -0.07873433 0.23033914 0.05021488 0.41987073 
_:B8f526ea0X2D7e9dX2D4aa4X2Da965X2Dd1e3f7bf73bc -0.12942995 0.5247236 -0.35800293 -0.37434345 -0.16313826 -0.06469816 -0.021562522 0.24191397 0.30184862 -0.027664082 -0.26826125 -0.1929552 0.22523624 -0.6549561 -0.078466296 -0.8999427 -0.5723872 -0.10141015 0.30063373 0.25375983 -0.72158533 -0.34189862 0.46396908 0.08473194 0.39186287 
_:Bf1df4f01X2D7115X2D4d5dX2D8cd7X2Db705ac344c1e 0.29558057 0.50728 0.24151765 -0.025700616 0.09882963 -0.48930895 -0.36449474 -0.22127 0.2744956 0.34984356 -0.21651436 -0.07081305 -0.14504893 -0.4208564 -0.08536958 -0.6253976 -1.0063329 0.07808622 -0.5763872 0.3169301 -0.36943322 0.14841954 0.29336104 -0.16343397 0.43125767 
http://www.co-ode.org/ontologies/pizza/pizza.owl#ThinAndCrispyBase 0.06462535 0.5517356 -0.30855405 -0.28755236 -0.35001034 -0.2042308 -0.31129688 -0.20714842 0.13719788 0.17214677 0.19331166 -0.19239257 0.32714736 0.1264736 -0.31056017 -0.4933733 -0.5195753 -0.32165152 0.036108706 -0.14084655 -0.27813566 -0.12374842 0.34443817 -0.06529212 0.47870308 
_:B35b47e68X2D0945X2D469eX2D835cX2D862dc5718781 0.27506196 0.42178777 0.1349584 0.0054320735 0.012756211 -0.43655643 -0.2772329 -0.22543915 0.25802994 0.2646252 -0.17322026 -0.15032668 -0.06737789 -0.43428886 -0.104846686 -0.5260974 -1.0336521 -0.0028998144 -0.48511577 0.2011676 -0.32491603 0.1063281 0.4763326 -0.20303677 0.4735774 
_:B336f8205X2D3767X2D4fefX2Dae36X2D668890436312 0.22866188 0.31098503 0.04742016 -0.099844955 0.09890329 -0.2896411 -0.16262679 -0.08724736 0.17425293 0.2637962 -0.04538123 0.03809811 0.093761206 -0.2956828 -0.051322374 -0.4051545 -0.4924338 -0.0045183003 -0.2693489 0.10762032 -0.2707221 0.033968005 0.11056521 -0.06574833 0.268323 
_:B199df8c5X2Db85cX2D4eb9X2D8776X2Df4898da65730 0.065300964 0.15856576 0.014101628 -0.062001918 0.03963981 -0.1330309 -0.10619169 -0.03375996 0.08180518 0.12760767 -0.016172951 -0.0010211822 0.06455553 -0.16597275 -0.029671246 -0.20558631 -0.24339622 -0.03802022 -0.0854606 0.03380051 -0.12726389 0.023015449 0.042638674 -0.0060436735 0.1326924 
http://www.co-ode.org/ontologies/pizza/pizza.owl#GorgonzolaTopping 0.43662512 0.70755225 -0.2733897 -0.19733824 -0.21022417 -0.5935953 -0.2246222 -0.32631415 -0.13980094 0.3216437 0.29281327 0.13356194 0.4827668 0.14714265 -0.3352943 -0.6378965 -0.12921524 -0.571788 0.092533484 -0.45213816 -0.5090685 0.049477484 -0.16280715 -0.15425003 0.24709064 
_:Bbf238a32X2D70a7X2D4b01X2D89aeX2D101bfa5b2448 0.505856 0.7796831 -0.12812892 -0.19807072 0.07622149 -0.68139666 -0.11883771 -0.29018173 -0.066520326 0.47046095 0.1513457 0.12563306 0.2926762 -0.093673475 -0.21310715 -0.66240543 -0.03511768 -0.49971864 0.006774002 -0.18607563 -0.53695035 0.12889682 -0.2999525 -0.17236747 0.14814888 
http://www.co-ode.org/ontologies/pizza/pizza.owl#GarlicTopping 0.34624162 0.7350951 -0.29563305 -0.1579435 -0.27154845 -0.6368931 -0.14489831 -0.32391486 -0.07452293 0.16395192 0.19292867 0.028878478 0.45722613 0.1384598 -0.35041717 -0.698142 -0.32870474 -0.60110605 -0.20354179 -0.43946233 -0.46437553 0.19850954 0.034890316 -0.32486305 0.24744791 
_:B21e9fe29X2Db3c1X2D4aa9X2D9a49X2D6e0bd5aace13 0.48774135 0.9405263 -0.202098 -0.2395627 0.09449033 -0.66906106 -0.11943181 -0.25757268 -0.12482533 0.29441407 0.13115868 0.15300266 0.41727957 0.07700416 -0.24034369 -0.7234548 -0.06753601 -0.49694973 -0.0114152245 -0.24935174 -0.5215229 0.09914201 -0.38593698 -0.20131215 0.2503097 
http://www.co-ode.org/ontologies/pizza/pizza.owl#SpicyTopping 0.23028708 0.5138955 0.17845601 -0.029667184 0.03604672 -0.3324518 -0.338805 -0.27104792 0.19910935 0.24959536 -0.09786338 -0.08291807 -0.0928829 -0.23859154 -0.09468821 -0.47275153 -0.6607923 -0.00617532 -0.38633388 0.19220008 -0.35018027 0.023663511 0.0755427 -0.043416373 0.21721102 
_:B033b4f6aX2Dfdd4X2D4575X2Daf21X2Df5802f4d40a4 0.35062316 0.54167575 0.15420733 0.027468067 0.04384508 -0.41952473 -0.3224005 -0.32707384 0.17750195 0.31069398 -0.11827043 -0.07725405 -0.08949446 -0.21610641 -0.078813635 -0.51899785 -0.7197584 -0.009946956 -0.4172077 0.15039262 -0.31967625 0.08503091 0.11474 -0.12438807 0.30667582 
_:Bddb99d59X2Df0d8X2D4417X2Dad8cX2Df20cff850ade 0.256695 0.4046633 0.07245542 -0.029661648 -0.0016216673 -0.3976287 -0.3217968 -0.32585207 0.16348583 0.31741753 -0.08297639 -0.11602456 -0.0826662 -0.3064948 -0.07036826 -0.5486536 -0.7249911 -0.06433331 -0.38401097 0.20082262 -0.33712414 0.16306463 0.17913087 -0.15687351 0.38455752 
_:Beb766d22X2Dbc79X2D49ebX2D8e54X2Dfa77a08741af 0.19692148 0.27303407 0.040175073 -0.05805503 0.09113377 -0.26831847 -0.19522858 -0.1512072 0.11622563 0.21879502 -0.04440555 0.009170409 0.02957799 -0.3114068 -0.028981509 -0.37661743 -0.51760894 -0.04545171 -0.30211502 0.08790253 -0.24063109 0.11286464 0.098531894 -0.06478195 0.25961143 
_:Bf9c7afa1X2Da6b0X2D4723X2D8a21X2Dcb2483e0b6e2 0.1120196 0.15587327 -0.008493075 0.0032803481 0.011886437 -0.12234073 -0.077084936 -0.09159103 0.04074226 0.090650365 0.00079311733 -0.00023280934 0.06684618 -0.07282192 -0.0584472 -0.15915798 -0.18377517 -0.06246309 -0.12157087 -0.016613381 -0.0870968 0.039857958 0.015634889 -0.04403357 0.14441875 
_:B4a025d37X2Dbae2X2D4ceeX2D9106X2D7d3c176bfbb0 0.09429767 0.15641606 0.021873549 -0.06590007 0.034555696 -0.12527104 -0.09119029 -0.04088075 0.06529839 0.121224314 -0.027330922 -0.015437613 0.038821265 -0.14733328 -0.009750048 -0.21150833 -0.23573749 -0.005692999 -0.061274715 0.06436898 -0.13753253 0.039183166 0.089176424 -0.027522666 0.12595385 
http://www.co-ode.org/ontologies/pizza/pizza.owl#France 0.38413945 0.62458384 0.10803636 0.037908774 0.00080672925 -0.37169605 -0.321586 -0.3188394 0.111982636 0.20819545 -0.1191727 -0.24510634 -0.11175729 -0.15343668 0.0004472416 -0.36218348 -0.6177582 -0.054060534 -0.14685129 0.1549338 -0.4285608 -0.19160254 0.13293995 -0.0473273 0.063428506 
http://www.co-ode.org/ontologies/pizza/pizza.owl#MeatyPizza 0.28981367 0.5903594 0.2194062 -0.048982106 0.06816333 -0.42823544 -0.44273913 -0.36866397 0.2281603 0.29479432 -0.10980948 -0.02735561 -0.08376116 -0.31020737 -0.16789673 -0.60231376 -0.79524714 -0.02387275 -0.5558888 0.19537798 -0.37664407 0.1749843 0.096159 -0.10786778 0.3707285 
_:Bc691a969X2D708eX2D412cX2Dab67X2Dee3c2d09a36d 0.3587168 0.5338661 0.19424696 -0.010435965 0.090043485 -0.48430642 -0.3548913 -0.37415725 0.11393392 0.25776923 -0.1747678 -0.05189142 -0.099112086 -0.35054207 -0.11936746 -0.5764064 -1.0138874 -0.03404491 -0.5841815 0.18643469 -0.36899236 0.28208128 0.3334402 -0.24318558 0.47125953 
_:Bb8864d7bX2D8e29X2D4938X2D9952X2D7f07906d272f 0.22379917 0.36485562 0.0597608 -0.09684554 0.06462466 -0.40994027 -0.28490114 -0.24543297 0.22235498 0.22301488 -0.14123613 -0.08575059 0.02275215 -0.50656617 -0.12372997 -0.5569598 -1.0430108 -0.042270876 -0.52366626 0.21664326 -0.28224304 0.20378667 0.5196681 -0.23402204 0.5345641 
_:Bf2d2fa8eX2D009cX2D437dX2D99b1X2D8abc7643d120 0.17690444 0.33174196 0.08131069 -0.07496142 0.10393715 -0.29088444 -0.20639704 -0.1367245 0.15343808 0.2131617 -0.06600198 0.04524269 0.04602174 -0.28905845 -0.089809425 -0.43006095 -0.469682 0.0035633175 -0.28925142 0.1003343 -0.28118968 0.09154097 0.08600511 -0.05763431 0.25118583 
_:B417b6ac9X2D13c5X2D4edfX2D930fX2Db9c1f78db106 0.106417745 0.21912004 -0.056868263 -0.07746395 -0.013817881 -0.14320424 -0.09783651 -0.071537375 0.061237693 0.06316504 -0.014967633 -0.015610926 0.051853172 -0.08346639 -0.042092726 -0.20777205 -0.28948104 -0.05852958 -0.054979693 -0.01934928 -0.1630276 -0.017019609 0.10629196 -0.0017232501 0.1566457 
http://www.co-ode.org/ontologies/pizza/pizza.owl#ChickenTopping 0.3036042 0.7691008 -0.25164196 -0.31899855 -0.22085226 -0.55127996 -0.25981826 -0.2430874 -0.013175075 0.24660923 0.23525138 0.16139129 0.43861017 0.18926884 -0.3386631 -0.64840543 -0.21124922 -0.48971507 -0.024492502 -0.3177337 -0.40435016 -0.007893632 -0.17219107 -0.16542566 0.27507055 
_:B157567d0X2D7202X2D443cX2Db2b8X2D292d699a0f61 0.42995617 0.8809059 -0.19533397 -0.33438867 0.02684551 -0.69013417 -0.18008766 -0.26535818 -0.1168171 0.3741146 0.15589409 0.17203386 0.28876546 0.11438169 -0.14862397 -0.6967624 -0.044285834 -0.45883796 0.115200885 -0.15878554 -0.571773 -0.015123969 -0.40843555 -0.15257022 0.13815254 
http://www.co-ode.org/ontologies/pizza/pizza.owl#NutTopping 0.21034119 0.837884 -0.36694852 -0.29870838 -0.39698592 -0.56966716 -0.21225503 -0.23323898 -0.15019448 0.26982155 0.29375547 0.022619413 0.36189476 0.5378787 -0.3347957 -0.72871447 -0.15919635 -0.41373 0.32888559 -0.5145646 -0.47015208 -0.112749696 -0.17159982 -0.17416984 0.49450365 
_:B439aeac1X2Dabe2X2D4e00X2D823fX2Dbc16e5b9ef9b 0.3930819 0.8495162 -0.14837779 -0.40455705 0.008610944 -0.79276437 -0.14397365 -0.28230122 -0.14804421 0.35782468 0.17233951 0.21333493 0.1730077 0.1430766 -0.07226409 -0.7169491 -0.015974106 -0.46994424 0.20928071 -0.22823119 -0.6423318 0.034545086 -0.48423406 -0.20616874 0.14019856 
http://www.co-ode.org/ontologies/pizza/pizza.owl#InterestingPizza 0.35764414 0.55018544 0.22804682 -0.019092007 0.08490017 -0.44569913 -0.4011772 -0.3606455 0.23492892 0.33656937 -0.12277364 -0.048413374 -0.11333569 -0.34866127 -0.09741906 -0.5934939 -0.88231534 -0.03720124 -0.5090629 0.21361214 -0.4019207 0.13196447 0.16241266 -0.11682017 0.36382672 
_:Bbe8de664X2Df25eX2D4e50X2Daf18X2Dc00646d0ae46 0.33804378 0.561429 0.16659123 -0.006365175 0.08683296 -0.4907031 -0.3687146 -0.33095622 0.2651814 0.3123309 -0.1706636 -0.121408194 -0.13500899 -0.500449 -0.0826629 -0.6346304 -1.0146513 -0.01758855 -0.64686835 0.31031215 -0.36044118 0.16477962 0.31066686 -0.17440312 0.39843878 
_:Be8faa0deX2Dc557X2D4811X2D8152X2D2fc625864cfa 0.26276815 0.31355605 0.14310223 -0.052957438 0.061291646 -0.4107691 -0.2973195 -0.25459978 0.23457076 0.31851244 -0.13707532 -0.113695964 -0.004872316 -0.56235486 -0.062765926 -0.52166516 -1.0541086 -0.069641545 -0.4343511 0.2371821 -0.32088804 0.2596441 0.48232016 -0.19396044 0.54914105 
_:B64f1f34bX2D000dX2D4d69X2Da1d5X2D4d093d0d4ebc 0.19264872 0.3052288 0.08067262 -0.09485031 0.16252053 -0.30964607 -0.20238397 -0.13205008 0.17225549 0.29413846 -0.053047165 0.011181742 0.06661592 -0.39324644 -0.034004934 -0.45866925 -0.52641225 -0.0055819796 -0.29609147 0.16667598 -0.29366842 0.13311544 0.085798874 -0.037208144 0.30573532 
_:Bcab2f745X2Dc99cX2D4dbfX2Dbb56X2De909f2fd36ad 0.111035235 0.15385048 -0.0066981353 -0.03810308 0.046053946 -0.098667346 -0.101971574 -0.06444651 0.056142546 0.09998115 -0.016355282 0.009641897 0.061661653 -0.10907296 -0.07362245 -0.19216758 -0.24659118 -0.021356208 -0.101104714 0.008618497 -0.15442416 0.02052847 0.061879802 -0.016783569 0.15134685 
http://www.co-ode.org/ontologies/pizza/pizza.owl#AnchoviesTopping 0.27653545 0.56794363 -0.32798812 -0.27500176 -0.36144993 -0.50173163 -0.2949282 -0.32996854 0.00931651 0.3188386 0.29315928 0.09585034 0.46203223 0.2685775 -0.40327683 -0.509881 -0.32413313 -0.5285906 -0.012372923 -0.4018441 -0.36477438 -0.071110606 0.12061196 -0.15487278 0.3207363 
http://www.co-ode.org/ontologies/pizza/pizza.owl#CaperTopping 0.41672635 0.7053751 -0.25992277 -0.21799229 -0.23939657 -0.62529147 -0.28780645 -0.3488722 -0.0024373592 0.28389964 0.3682813 0.16667295 0.5270814 0.09192208 -0.41788626 -0.6044719 -0.24858914 -0.7249954 -0.2527391 -0.53541225 -0.4285191 0.11063023 -0.1327677 -0.24071485 0.23925267 
_:Be929013aX2D396fX2D4bb4X2Dadf4X2D338f2290fc4c 0.5601658 0.81878436 -0.2016513 -0.24245071 0.0043685506 -0.7899352 -0.19229645 -0.3645822 -0.15811373 0.39891776 0.2758329 0.19689253 0.3492539 0.017995812 -0.17213328 -0.6538695 -0.049869694 -0.6241916 0.103546396 -0.3993159 -0.50821406 0.16998684 -0.40716493 -0.23527277 0.20816663 
http://www.co-ode.org/ontologies/pizza/pizza.owl#Fiorentina 0.048125144 0.77383596 -0.5565087 -0.7263111 0.5248584 -0.17568786 0.19361328 0.4898137 0.631463 0.35930544 0.21277013 0.594846 0.7375732 -0.40287486 0.3087831 -1.0301725 -0.3580747 -0.25746223 0.28811815 -0.26794297 -0.3833441 -0.20910904 -0.04452352 0.033264436 0.7382793 
_:Bbebe4ad0X2De129X2D4b80X2DafbfX2Deaca9814e5c2 0.20698401 0.5164348 -0.35485348 -0.61161005 0.058194693 -0.29961073 0.18615253 0.34171507 0.12960967 0.31981692 0.037832133 0.109146915 0.6955728 -0.3521593 0.24258864 -0.7977979 -0.18244341 -0.27050307 0.6868275 0.014016999 -0.52720445 0.0227242 0.014684334 -0.0062127355 0.37282324 
_:Baba0faa3X2D790bX2D41faX2D9b22X2D76f71bc872bb 0.10465613 0.6217193 -0.3500127 -0.7037231 0.15491593 -0.17474532 -0.010854399 0.25039992 0.07149602 0.3531471 0.0746294 -0.0069673876 0.523083 -0.33461088 0.16534553 -0.8659311 -0.38725457 -0.17466804 0.62351465 0.21918465 -0.6563562 -0.1627633 0.1158974 0.11648044 0.3534536 
_:Bfa729d7eX2De5e6X2D462cX2Da1e3X2D486a582d5e94 0.13499247 0.6195395 -0.3057195 -0.5450712 -0.052443944 -0.29202977 -0.021502737 0.17644125 0.06634196 0.26832998 0.14589755 -0.0074812523 0.63078344 -0.15468535 0.031701386 -0.75160754 -0.23800915 -0.33694893 0.55055016 0.065685265 -0.47789624 -0.03568958 0.04991907 -0.0041068145 0.2971832 
_:B9968a9a9X2De1aeX2D4029X2D9c32X2D9127a5e5f83e 0.16708568 0.5338837 -0.41760683 -0.6887368 -0.025608422 -0.3205654 0.08247667 0.15255006 0.06531766 0.30743816 0.22904828 0.070469245 0.57530653 -0.38017234 0.12899253 -0.852813 -0.23365541 -0.39535207 0.66975087 0.014923428 -0.61631894 -0.072757475 -0.0047689825 0.064478606 0.33792213 
_:Ba9978924X2De80cX2D42e2X2Da9e8X2D122b3350ee24 0.17875741 0.69430715 -0.38737768 -0.6153197 0.06919557 -0.23351577 0.011636509 0.26121598 0.12778333 0.2489265 0.03899195 0.0023536047 0.6421064 -0.33612216 0.16181967 -0.84429073 -0.2986309 -0.232842 0.597663 0.17755777 -0.6838712 -0.16991864 0.0046204412 0.1170359 0.28745523 
_:Bdde1814bX2D9e27X2D467bX2Dab9fX2Ddf35b26976dd 0.086764336 0.5886616 -0.32044366 -0.62840015 0.07682924 -0.23100124 -0.017598396 0.21084903 0.15113722 0.31992182 0.15850219 0.065645255 0.5246094 -0.3577359 0.13097455 -0.82292277 -0.2297116 -0.25946462 0.5608882 0.14704883 -0.6153724 -0.13195112 -0.0058003357 0.14371346 0.2779768 
_:Bc56bfdb2X2D8b8bX2D4c48X2Dafd5X2D5edcdea839a3 0.16355892 0.55647546 -0.35400742 -0.63987464 0.018108562 -0.2287939 -0.0022730557 0.14177579 0.020587344 0.30213568 0.13423087 0.0506738 0.53942573 -0.27252918 0.07289172 -0.8682815 -0.22466476 -0.2278707 0.5852666 0.088144526 -0.6285365 -0.12391172 -0.024346303 0.090525486 0.24791099 
_:Be30971acX2D1b49X2D4cb4X2DbdfdX2Df97e670411fd 0.22582667 0.31747442 0.015035534 -0.06707096 0.060770456 -0.29193956 -0.1615278 -0.070365444 0.10409198 0.25225493 0.011359332 0.023428872 0.15690212 -0.19722202 -0.07921411 -0.38516062 -0.41372886 -0.023716219 -0.14669572 0.02807598 -0.25421658 0.086647354 0.060442496 -0.06012295 0.26705492 
_:B33bb84faX2Dfa91X2D40d7X2Da7edX2Dba07252806f8 0.21973433 0.3056969 -0.00056963996 -0.09030809 0.107506536 -0.26315516 -0.14912356 -0.10679837 0.11880985 0.25589067 0.0013454418 0.020553939 0.11131915 -0.27312592 -0.0022833562 -0.3933928 -0.43400973 -0.067535326 -0.1466168 0.089311376 -0.25704074 0.07731594 0.05912373 -0.026503714 0.2712355 
_:B1a59ac1aX2D32e9X2D4a2aX2Da870X2D261230a7be6a 0.07798143 0.14372876 0.008869168 -0.00273349 0.05945969 -0.0931394 -0.06552683 -0.02233366 0.071367376 0.10328859 -0.011391366 0.0041238433 0.037465453 -0.10309481 -0.013967837 -0.17072725 -0.2088272 0.0012131075 -0.050353244 0.048067424 -0.10382067 0.05852244 0.0133053 -0.023144338 0.10939648 
http://www.co-ode.org/ontologies/pizza/pizza.owl#SpinachTopping 0.3550556 0.7985202 -0.3262566 -0.36415932 -0.18037508 -0.547757 -0.22120075 -0.21015027 -0.08695252 0.24470818 0.23544279 0.19313051 0.5388534 0.3209353 -0.19298376 -0.65509075 -0.26679447 -0.54700446 0.084640294 -0.46045884 -0.47228318 0.0736264 -0.16321298 -0.21460357 0.35795125 
_:B662b6967X2Dc1e3X2D41c0X2Dbf4cX2D240d0a464e35 0.5354957 0.8171026 -0.17130432 -0.24351189 0.08362424 -0.6331733 -0.1866148 -0.27033404 -0.13771226 0.31114587 0.0602717 0.14127952 0.38926947 0.075650595 -0.1135705 -0.6842472 -0.10744669 -0.44895175 0.019391228 -0.22363007 -0.49835712 0.13549873 -0.38661614 -0.17098884 0.22204281 
http://www.co-ode.org/ontologies/pizza/pizza.owl#NonVegetarianPizza 0.26966166 0.66130364 0.2022934 -0.055470955 -0.0986965 -0.55578625 -0.51667655 -0.4734384 0.24538323 0.3241257 -0.09696936 -0.16909696 -0.17641357 -0.19692238 -0.24630637 -0.5824924 -0.9092516 -0.09897151 -0.6615302 0.21595927 -0.4066378 0.16726987 0.22975774 -0.1961231 0.39585876 
http://www.co-ode.org/ontologies/pizza/pizza.owl#VegetarianPizza 0.31152982 0.5958345 0.19878376 -0.015006675 -0.092002004 -0.53349733 -0.48529744 -0.47828844 0.18962146 0.34607354 -0.11291243 -0.18605106 -0.22854239 -0.12483752 -0.15497051 -0.5553944 -1.0122226 -0.008577256 -0.616333 0.22165641 -0.37559494 0.16977422 0.29281592 -0.24843754 0.4470912 
_:Bfdb7168fX2D7699X2D4014X2D85b3X2D035b3c7ee22d 0.41035765 0.57871664 0.16098222 0.02775688 0.14228024 -0.49517462 -0.4006023 -0.43136325 0.19650222 0.3290373 -0.19386967 -0.13098302 -0.124683306 -0.47266245 -0.089908466 -0.5529868 -1.0857567 -0.03295888 -0.5792206 0.22775862 -0.36117482 0.21329555 0.3932732 -0.20638894 0.49276438 
_:B57f5dc35X2D0873X2D4c13X2Db0d2X2D436736356365 0.30082425 0.5431949 0.1275149 -0.04190272 -0.0050985618 -0.55940294 -0.36489046 -0.35698733 0.2045301 0.32200208 -0.17075807 -0.20285943 -0.1560822 -0.36278552 -0.13587473 -0.6174858 -1.058205 -0.015827967 -0.631296 0.3239964 -0.34862244 0.19647238 0.46995085 -0.32568246 0.39682242 
_:B4b557530X2Daa04X2D401bX2Db892X2D368df97907f5 0.28808647 0.32513037 0.11738918 -0.09106865 0.05464354 -0.50383765 -0.30351898 -0.25376466 0.16001673 0.35772637 -0.19381921 -0.10026379 -0.004576988 -0.509506 -0.040425982 -0.58922887 -1.1338389 -0.0044551836 -0.4929688 0.29458007 -0.3018908 0.30585766 0.5222818 -0.29407382 0.5790609 
_:Bdd6212beX2D4a06X2D41abX2Db4b3X2D090c42e99991 0.25994915 0.3818046 0.09885801 -0.06155282 0.12892677 -0.31938878 -0.25536266 -0.2370806 0.14864329 0.2569946 -0.04958444 -0.0018226275 0.016120218 -0.33182016 -0.075394176 -0.41788614 -0.54433125 -0.02613354 -0.3191467 0.092030056 -0.32242602 0.10817333 0.08730188 -0.023077134 0.26328263 
_:B0eb11128X2D1ab9X2D4cc2X2D8dceX2Da4ea80b9bcbb 0.26667437 0.33794266 0.09442029 -0.0669562 0.03344491 -0.42695308 -0.32316083 -0.3385092 0.1886948 0.29245505 -0.16443159 -0.16715953 -0.121924296 -0.54326296 -0.074228875 -0.49344665 -1.0868738 -0.03894001 -0.4921557 0.22406791 -0.3006665 0.18910696 0.5403024 -0.20688766 0.55382293 
_:B45ec25b5X2D21baX2D40b3X2D83d5X2D62234350adf4 0.18621641 0.3536575 0.09912301 -0.06388498 0.088227116 -0.2898333 -0.23066606 -0.16127436 0.13321926 0.22123192 -0.0714754 0.0235064 0.02738298 -0.28733033 -0.08971886 -0.41157523 -0.539036 0.014152525 -0.33774367 0.12477522 -0.29608476 0.10368334 0.1369547 -0.05563361 0.2790441 
_:Bd2d8b9c7X2Dca06X2D43ebX2Dbb24X2D171dbe1c70b1 0.072379865 0.13790067 -0.024225205 -0.038633775 0.0066263033 -0.1385279 -0.110733174 -0.072053485 0.04475272 0.10141933 0.01613659 -0.00722351 0.06699154 -0.16652095 -0.052655827 -0.2276722 -0.21772851 -0.060737062 -0.06762778 0.030911123 -0.13045858 0.04606367 0.05696674 -0.021469813 0.1576425 
_:B77d58f75X2D7587X2D4440X2Db654X2D44d128614a2c 0.5024291 0.661682 0.22911333 -0.070890844 0.30553123 -0.76047724 -0.36857218 -0.444251 0.15350004 0.62843937 -0.10458195 0.065949 -0.26274586 -0.25372988 -0.057237167 -0.71589136 -0.8182839 0.016726665 -0.7333948 0.28504905 -0.4129555 0.312389 0.010560441 -0.34463936 0.45686674 
_:B244a6bfcX2Ddaa9X2D41ffX2D94d2X2D6674deed5972 0.3345945 0.4693713 0.15181081 -0.050007194 0.23587915 -0.42312244 -0.22296868 -0.20719253 0.10734412 0.3500634 -0.05444826 0.049498644 -0.008493103 -0.28124878 -0.0828097 -0.5001923 -0.5754938 -0.004567003 -0.37410638 0.12710306 -0.31935382 0.20823795 0.03831996 -0.13168848 0.3006481 
http://www.co-ode.org/ontologies/pizza/pizza.owl#Soho 0.0425981 0.37935764 -0.31885245 -0.6229233 -0.16684754 -0.2635131 -0.3100583 -0.04970089 0.2551614 0.45519426 0.4443976 0.24206404 0.70840186 -0.5752277 -0.46295965 -0.7259525 -0.19786495 -0.28513682 0.12637153 -0.086968854 -0.3033136 -0.14495505 -0.026176441 0.3654463 0.2422059 
_:Bc3b03a4dX2Dfb51X2D408aX2Da482X2Db3357f42ad7d 0.21558961 0.39041594 -0.28058952 -0.4618723 -0.18895197 -0.34480956 -0.0508798 -0.09249399 0.05123697 0.23925836 0.15975696 0.0071803452 0.35995722 -0.32059878 -0.00403186 -0.55952936 -0.28738222 -0.26092154 0.4387917 -0.11918256 -0.42082015 -0.049471814 0.09228756 0.043916058 0.26637045 
_:Be7c67db1X2D03b4X2D4dcaX2Db15fX2Db589af044771 0.06967306 0.51554304 -0.28848177 -0.5710978 -0.20239684 -0.33102 -0.119474865 -0.07290308 0.020370541 0.22625501 0.19110171 -0.013645029 0.3939769 -0.26198083 -0.03828896 -0.6828806 -0.24151951 -0.23246536 0.55063426 -0.049397107 -0.55249447 -0.12635158 -0.00088807236 0.13270587 0.23361602 
_:B4e1f4a13X2D4fe4X2D4164X2Da783X2D4d8ad2cbb8d6 0.14361571 0.44775927 -0.32764632 -0.5763244 -0.2848407 -0.3288417 -0.11009533 -0.059458073 -0.11710861 0.24194185 0.20445412 -0.008600557 0.4413733 -0.14467396 -0.06640339 -0.67944145 -0.24900474 -0.32032531 0.689686 -0.13769352 -0.5580959 -0.11626977 0.11557609 0.09039473 0.33284438 
_:B635d2a90X2D39c3X2D4482X2D8117X2D20eb2297ff79 0.0960965 0.511419 -0.31456044 -0.5698813 -0.21827483 -0.27905244 -0.13775504 -0.012833517 0.04242641 0.2469525 0.15455242 -0.05396626 0.40140957 -0.30596063 -0.0178994 -0.72239864 -0.36932763 -0.2209224 0.61326563 0.0031668819 -0.6147464 -0.24901332 0.13300647 0.16147612 0.2813959 
_:B6237c9fbX2Df9ebX2D4dcaX2Da71aX2D2e4ea1573fff 0.06829783 0.47290313 -0.22254619 -0.6082653 -0.06601951 -0.2139566 -0.15014328 -0.011674282 0.048690528 0.20288058 0.12872465 0.037163757 0.29783595 -0.34984383 0.07719881 -0.6697084 -0.24438293 -0.13780004 0.5460161 0.05371481 -0.5700386 -0.16954054 -0.006023434 0.1800044 0.26817298 
_:B9e31887aX2Dda39X2D46c9X2Db797X2D1241e3d5fbfa 0.021073597 0.45353743 -0.25118235 -0.5610979 -0.10899596 -0.16821872 -0.19737113 -0.006444353 0.092868745 0.19788575 0.10018224 -0.06834326 0.31769657 -0.3687714 0.019161487 -0.67600256 -0.41089824 -0.13382195 0.51429844 0.119024135 -0.57978487 -0.21600701 0.1580588 0.18513241 0.32702842 
_:B4d3eb698X2D42a6X2D4972X2D978bX2D6747b5b7987b 0.1499382 0.3027807 -0.09536897 -0.16367425 -0.043606773 -0.19733128 -0.16651225 -0.11424222 0.032055095 0.15407883 0.045466013 -0.0054379995 0.18091364 -0.094899 -0.08710921 -0.33463442 -0.36082408 -0.14021035 0.036148176 -0.03030365 -0.26911038 0.025418974 0.09132025 -0.0038517835 0.25420406 
_:B6ae708a5X2D6670X2D4a6cX2Db8dcX2D980122936652 0.06518738 0.5418589 -0.32999006 -0.6152026 -0.27786633 -0.324795 -0.12284461 -0.039461613 0.054772016 0.26530617 0.24118033 -0.016264394 0.47347754 -0.27898526 -0.13201976 -0.72952 -0.2640313 -0.25865898 0.54853064 -0.021649798 -0.54648 -0.17043775 0.101317525 0.112423636 0.23562388 
http://www.co-ode.org/ontologies/pizza/pizza.owl#RocketTopping 0.35581747 0.75327456 -0.30567244 -0.34834242 -0.18894807 -0.5327022 -0.25809464 -0.27183774 -0.08311297 0.24518415 0.22654903 0.19728012 0.44259325 0.30682865 -0.2558093 -0.63642955 -0.24001198 -0.47384116 0.066333026 -0.35767853 -0.42882225 -0.04675311 -0.12918273 -0.19820939 0.2870399 
_:Bccd6a160X2Db0e7X2D4a66X2D91eaX2D8936f43473cb 0.48393196 0.7831639 -0.15210024 -0.23922507 0.00044707465 -0.6328146 -0.19086541 -0.24600293 -0.014633834 0.37151605 0.12365357 0.13955605 0.23351125 0.122740634 -0.09061018 -0.5955735 -0.19232024 -0.32761848 0.054252237 -0.15597168 -0.465023 0.012832185 -0.34818485 -0.17168862 0.29408807 
_:Bebee49c7X2Dbea7X2D4f50X2D8ca9X2D7bd75a79c55b 0.08294398 0.15659733 -0.010783156 -0.10688142 -0.005907599 -0.14411086 -0.1056726 -0.07508838 0.030039405 0.11801455 0.0012346976 0.014627861 0.10628659 -0.14328408 -0.04801125 -0.21655378 -0.20558453 -0.0486807 -0.021845747 0.0027126078 -0.16955437 0.042953115 0.06910811 -0.007626706 0.14463916 
http://www.co-ode.org/ontologies/pizza/pizza.owl#Siciliana -0.021710698 0.404389 -0.3477555 -0.58969885 -0.06704186 -0.14634986 -0.31809276 0.082373716 0.3897943 0.35301554 0.47227606 0.24476886 0.86004454 -0.87287706 -0.5132319 -0.75012845 -0.31736097 -0.27217644 0.19103849 -0.16014212 -0.32956788 -0.2249424 0.07301976 0.4994466 0.19469832 
_:B339f86baX2D48ceX2D4a07X2Da32dX2Dea949ffb7f43 0.0865822 0.51745313 -0.2234466 -0.46489668 -0.13206683 -0.13295886 -0.16194719 0.088885255 0.18057208 0.15687299 0.09304583 -0.07647962 0.4293681 -0.3667822 -0.02097531 -0.64381284 -0.320655 -0.10474313 0.5393911 0.123939194 -0.5475515 -0.2926096 0.09564743 0.25787783 0.1934584 
_:B1a3fc06bX2D62a6X2D4276X2Da789X2Dc2f3082ab9f2 0.09933194 0.45168582 -0.44849312 -0.54122746 -0.24297804 -0.14975679 -0.12030325 0.0734432 0.13004178 0.13284543 0.13009657 -0.062840685 0.52695626 -0.44125327 -0.030657569 -0.6882959 -0.32393438 -0.28690547 0.62650055 -0.011550568 -0.63578564 -0.28588066 0.17451549 0.24463956 0.298211 
_:Bc8e5a206X2Dae9eX2D44b2X2D8c1dX2Ddb611956355a 0.10308005 0.4892699 -0.29128858 -0.46502602 -0.14506894 -0.22086276 -0.08548766 -0.016974797 0.13083868 0.15477173 0.15004931 -0.06145 0.42388225 -0.3093126 -0.06024892 -0.6098624 -0.34729293 -0.21798216 0.3920243 -0.025595015 -0.4445615 -0.16324185 0.1481102 0.11012988 0.23460454 
_:B2a9260a6X2D8dd4X2D47c6X2D9547X2D1472a61321de 0.08922545 0.45203343 -0.26236 -0.43125278 -0.10268882 -0.11635333 -0.15345018 0.05659564 0.089141905 0.16981794 0.059256207 -0.068774156 0.46302304 -0.3208851 -0.03419368 -0.64295894 -0.41842338 -0.16291614 0.5282713 0.04129876 -0.58283156 -0.21179415 0.16434774 0.19082245 0.33084434 
_:Badd8cd8bX2Deeb2X2D4650X2D8c1aX2D758a8073ef4f 0.17273471 0.5124015 -0.441041 -0.5267267 -0.25288215 -0.27509326 -0.007901326 0.016151704 0.09260118 0.21574661 0.27621922 -0.095620915 0.57028174 -0.30488685 -0.060364902 -0.63012636 -0.27571014 -0.33346823 0.6607339 -0.07359091 -0.5275376 -0.2435071 0.19959149 0.1126247 0.20079792 
_:B1408c82bX2D3210X2D4c01X2Db26eX2Dc9a584c06593 0.086677805 0.5105589 -0.22241524 -0.49191138 -0.015851226 -0.14252743 -0.15378492 0.046616275 0.1296766 0.20035118 0.11177909 -0.013374149 0.33315092 -0.3771947 -0.019349072 -0.68260956 -0.35596532 -0.13591972 0.43071988 0.08112 -0.5632483 -0.19578554 0.011327302 0.22219934 0.23022956 
_:B5db7692dX2D2e0dX2D4a66X2Da185X2Dde95a759ea3a 0.20666693 0.47280502 -0.3032443 -0.5673977 -0.110967636 -0.28323415 -0.0444406 0.070807554 0.08099801 0.24144429 0.17357074 0.07469438 0.60606104 -0.45500922 -0.040135916 -0.74257374 -0.2176744 -0.26929137 0.6656908 -0.07159841 -0.6012191 -0.14879048 -0.038203105 0.19895121 0.26173228 
_:Bcffc6e05X2D5b27X2D471eX2Dbb1bX2Dfb9aaa5e5b45 0.17333499 0.30659515 -0.047441922 -0.11425553 0.05556197 -0.18868402 -0.18949102 -0.10122962 0.075986326 0.14321826 0.036995318 0.045332164 0.2395925 -0.109397255 -0.113077246 -0.29993063 -0.36331412 -0.117926754 -0.050768353 -0.07354626 -0.24719344 0.008857141 0.08341982 0.00285412 0.25881964 
_:B578f93b8X2Df570X2D4d73X2Da842X2D9305f7374cfd 0.09051238 0.56738853 -0.25993606 -0.5631878 -0.13412237 -0.20873696 -0.08702575 0.109896764 0.11675996 0.22443037 0.13831678 -0.08921536 0.49788326 -0.36794275 0.029875275 -0.7689914 -0.27785963 -0.1316794 0.64768237 0.14258032 -0.6347912 -0.17021845 0.032810554 0.21418388 0.21716064 
_:Bf1ade80cX2D7304X2D423aX2Dad1dX2Dd51540e10a33 0.09523087 0.18811552 -0.0076726465 -0.06866906 0.012658632 -0.14012043 -0.1095226 -0.06765298 0.04717002 0.10697369 0.017240373 -0.021057159 0.06134937 -0.05545037 -0.022231538 -0.19203635 -0.16730595 -0.06774928 -0.020210186 0.015200266 -0.13322482 0.02371062 0.009193398 0.013309707 0.114222236 
http://www.co-ode.org/ontologies/pizza/pizza.owl#FourSeasons 0.09954467 0.33490705 -0.1871093 -0.5838498 -0.16221687 -0.2631397 -0.42861348 -0.093870945 0.21864377 0.46164617 0.49086738 0.23143274 0.7955044 -0.6614585 -0.5418731 -0.66776484 -0.14339794 -0.3062698 0.19591461 -0.20670423 -0.37207124 -0.11945736 -0.09042456 0.46505943 0.20729935 
_:Bfedf8323X2Df21eX2D4da9X2Db55aX2D3844b5e5daf0 0.15822221 0.51628876 -0.24906865 -0.5034751 -0.105687186 -0.2747432 -0.17218733 -0.058950763 0.08567904 0.21496865 0.15558057 0.008643472 0.40690148 -0.30706716 -0.027169164 -0.62010235 -0.21129878 -0.22728616 0.38498563 0.008677477 -0.46881318 -0.058633942 -0.05619484 0.17772485 0.19428094 
_:B244b7b27X2D9febX2D4e41X2Db000X2D6a25051cdd42 0.09683965 0.5415149 -0.17178829 -0.4866677 0.004387149 -0.19438063 -0.1786928 0.055578582 0.14240468 0.27061656 0.1231686 -0.051908545 0.40965307 -0.31819 -0.030492395 -0.63207483 -0.32030272 -0.09677376 0.39719138 0.12530327 -0.5116124 -0.15282808 0.03749767 0.23677981 0.18049842 
_:B56f1d530X2DcdadX2D4be8X2Db270X2D58c93f2399cf 0.13163865 0.5048887 -0.32175338 -0.54809326 -0.17494489 -0.23827124 -0.13536464 -0.053827565 0.07028141 0.21911159 0.17541379 -0.044937342 0.42494637 -0.252537 -0.01284816 -0.69359374 -0.22461486 -0.24028945 0.5235305 0.0042520836 -0.51803005 -0.1686439 -0.006745722 0.1831095 0.28748703 
_:B349aa9b2X2D11e3X2D45d1X2Da388X2D96508cb53512 0.19459307 0.529193 -0.3372811 -0.52035534 -0.16124272 -0.29821938 -0.10797934 -0.061139245 0.018862296 0.2164977 0.19341496 0.006560021 0.4987047 -0.24799506 0.0028350167 -0.6578532 -0.21844593 -0.24169926 0.6113121 -0.111198865 -0.50858086 -0.1806202 -0.018520212 0.1920223 0.23442149 
_:Be73e312eX2D1af1X2D41c8X2Db0fdX2De0c675a065fa 0.10451408 0.5715033 -0.291224 -0.5222366 -0.11192598 -0.1270087 -0.19089791 -0.018467838 0.109394945 0.21971762 0.1299206 -0.11222102 0.39554244 -0.26958448 0.052478053 -0.66183 -0.3434594 -0.18583298 0.5719773 0.09614366 -0.60359067 -0.27725774 0.08291665 0.2379831 0.25230184 
_:B9e8d82f9X2Dbb1eX2D4994X2D8c5dX2D6759ab033da9 0.1285548 0.40836713 -0.3238714 -0.5876508 -0.123564474 -0.2684403 -0.06284486 0.036291562 0.064444885 0.29674953 0.16472605 0.013843839 0.5281694 -0.3735886 -0.008859764 -0.66175556 -0.2074874 -0.24098988 0.58868784 -0.006334301 -0.50191164 -0.03238041 -0.009514924 0.19415987 0.29203644 
_:B80b756d8X2D0fe3X2D44baX2D8dceX2Dfc0c0da5e39f 0.17090575 0.31518316 -0.04604958 -0.147033 0.029922292 -0.19563162 -0.18580464 -0.09668377 0.0737031 0.14355181 0.049237084 0.008053988 0.16197324 -0.20200849 -0.051772807 -0.32522294 -0.30033532 -0.09348824 0.004208204 -0.052563366 -0.2831237 -0.01937845 -0.0008902018 0.04349552 0.20901442 
_:B2ff0011eX2D4fc1X2D4b14X2D9d87X2D4a8d03e86f32 0.09957513 0.626308 -0.2844521 -0.6084619 -0.107521966 -0.18368684 -0.19070391 -0.040971067 0.08063176 0.20139244 0.16373302 -0.11953591 0.39439207 -0.31402656 0.06606821 -0.72934014 -0.34941456 -0.13937949 0.64891064 0.08221896 -0.6260547 -0.27741623 0.032776378 0.29797548 0.21046874 
_:B38e534d7X2Dbb10X2D4959X2D8663X2D19e35489b5ed 0.17108703 0.49528262 -0.33906925 -0.5012503 -0.14636758 -0.24608025 -0.13563052 -0.02202069 0.0864052 0.15565825 0.15164728 -0.031433534 0.53055084 -0.40216032 -0.032561045 -0.6511475 -0.26999936 -0.20798372 0.5184261 -0.007860328 -0.56705403 -0.16269381 0.027574021 0.23880056 0.23229448 
_:B2f97b9e6X2D3045X2D4e96X2Da944X2Dd2367080876e 0.11591673 0.2190289 0.014507665 -0.09539842 0.041476846 -0.18249364 -0.14038071 -0.060755506 0.052645586 0.16806817 0.02899512 0.028932499 0.11203222 -0.10962086 -0.04989047 -0.28468832 -0.23156308 -0.020497642 -0.036803346 0.013981814 -0.17414042 0.035722695 0.0010116749 -0.0046486817 0.147863 
_:Bd7adf0bdX2Df2c2X2D47baX2Da820X2D451af438c65b 0.06813176 0.1330962 0.033368174 -0.07961654 0.036025174 -0.09774799 -0.0907353 -0.04695526 0.0414066 0.10732882 -0.0027897388 -0.0075154165 0.062160823 -0.091270275 -0.033341464 -0.18361868 -0.21291518 0.004743653 -0.012256335 0.012168896 -0.1413686 0.0255746 0.02417027 -0.013113572 0.09671848 
http://www.w3.org/2004/02/skos/core#definition 0.057216216 0.1312215 -0.029451737 -0.043240655 -0.015445821 -0.035376597 -0.044778753 -0.030424973 0.027611082 0.018239133 0.033617955 -0.031923477 0.05685965 -0.059767663 -0.0037943441 -0.087314814 -0.085555956 -0.039227568 0.040745612 -0.0042047137 -0.09475224 -0.082877345 0.017516976 0.014748083 0.013276872 
http://www.w3.org/2002/07/owl#AnnotationProperty 0.38121447 0.60517 -0.10666757 -0.027983282 0.009414764 -0.26891 -0.26076275 -0.21802452 0.10713618 0.16208422 0.007517625 -0.16216332 0.12349645 -0.095871076 -0.072016835 -0.33071756 -0.43585768 -0.12479779 0.014626829 -0.036997903 -0.38115162 -0.3037231 0.105338044 0.040843952 0.073025145 
http://www.w3.org/2004/02/skos/core#prefLabel 0.0714328 0.12082903 -0.0016488375 0.015032034 -0.020465063 -0.07368183 -0.04604974 -0.07949777 0.03417497 0.05185773 0.019340463 -0.032932922 0.009602475 -0.009238 6.5376866e-05 -0.06405666 -0.088406 -0.018164335 -0.02644243 -0.0347271 -0.07176339 -0.041175228 0.0229405 0.0013462007 0.040451724 
http://www.co-ode.org/ontologies/pizza/pizza.owl#Capricciosa -0.010198609 0.33718744 -0.28304335 -0.5782497 -0.0006847272 -0.13374557 -0.35404426 0.104818344 0.27691078 0.5894662 0.5419595 0.23092733 0.8707822 -0.761015 -0.6293471 -0.7386967 -0.1549558 -0.37371603 0.091101445 -0.02183505 -0.36260608 -0.055681646 0.112877 0.37804163 0.20260452 
_:Ba26c4596X2D98f5X2D4f8eX2D8152X2D3cdf066c9b61 0.11758002 0.48444745 -0.2121789 -0.4070703 -0.069070324 -0.21555434 -0.17004141 0.03251622 0.08524814 0.23661105 0.14315106 -0.021427913 0.37002212 -0.21669929 -0.048260212 -0.57001287 -0.29335508 -0.12321066 0.37487835 0.06311952 -0.53271526 -0.23200424 0.03530519 0.17923781 0.14187185 
_:B2c0b71a1X2Db2f1X2D470dX2DabfaX2D6a63b4e1690f 0.17612794 0.394757 -0.26918253 -0.3993007 -0.14428788 -0.22957851 -0.13521296 -0.030296342 0.059885774 0.26085743 0.18493581 0.007216742 0.5015567 -0.25808576 -0.07919004 -0.5689806 -0.29731822 -0.27456766 0.36164862 -0.08178345 -0.5018259 -0.10765772 0.023844164 0.16657321 0.1928014 
_:Bcedfb50aX2Da31cX2D47e4X2D8d06X2Da2ce8a37c77e 0.117531225 0.5169435 -0.25895083 -0.5042244 -0.115413725 -0.20147893 -0.10673713 0.035835084 0.035603885 0.2347367 0.19984426 -0.035864152 0.53198266 -0.28740105 -0.07718964 -0.6917685 -0.2636883 -0.1834611 0.5315382 0.03359425 -0.5736954 -0.153063 -0.026965423 0.20509617 0.17353562 
_:B1f0daf20X2Dde79X2D46f8X2Db869X2D091881e3533e 0.19452941 0.49012646 -0.3181677 -0.5095911 -0.26183885 -0.31880867 -0.09849472 0.00080707506 0.07335948 0.24263681 0.23607871 0.023720454 0.66246265 -0.22710317 -0.09371824 -0.6949068 -0.18690018 -0.34003007 0.5423395 -0.117934085 -0.46973318 -0.06357206 -0.0680499 0.13978226 0.2399708 
_:Bc4f9edecX2Dc03dX2D494bX2Db73cX2D0740fa95e9d5 0.113875404 0.3653634 -0.2898136 -0.512252 -0.10788326 -0.1580972 -0.16743293 0.042310286 0.063398175 0.26849166 0.1521152 -0.0042730407 0.4715558 -0.40900052 -0.009356131 -0.6985118 -0.37775743 -0.19997153 0.4483135 0.077445984 -0.5923077 -0.15618107 0.10751825 0.17939124 0.320951 
_:B0078c3a3X2Dc97eX2D4008X2D9d7bX2Dd5bc5c428bcc 0.06830235 0.50067174 -0.32764336 -0.6048761 -0.22571142 -0.21256983 -0.151764 0.06975539 0.090452254 0.34441388 0.2661141 -0.073262654 0.57891536 -0.30537486 -0.09757736 -0.75096226 -0.2012977 -0.2460382 0.67558277 0.029989995 -0.63057476 -0.21842965 0.03348196 0.24429828 0.21787618 
_:B8d987f7aX2Dde94X2D470eX2D91daX2D207d2edc3085 0.23124367 0.4896462 -0.32960418 -0.56572855 -0.14237952 -0.30057558 -0.11944309 -0.008783812 0.06072335 0.32698864 0.25598568 0.06978453 0.6549139 -0.36097363 -0.05831943 -0.7231983 -0.21156694 -0.35920152 0.5470513 -0.08643803 -0.5390053 -0.08933277 -0.04178881 0.18732767 0.27318788 
_:B3f9b6e2eX2D1b35X2D405dX2Dba45X2D29f5ea527ffd 0.13891673 0.4149446 -0.31225127 -0.46155667 -0.21726918 -0.26407555 -0.10371297 -0.007740568 0.06621739 0.27153018 0.2055068 -0.031482752 0.47244453 -0.2383006 -0.042594675 -0.6548439 -0.27685168 -0.26733536 0.42631224 -0.034158524 -0.48427793 -0.03466425 0.063763335 0.11699945 0.2686024 
_:B8757461cX2Dd0a6X2D48ddX2D9144X2Deba33ceaf5ef 0.2068255 0.33921888 -0.086738326 -0.14721274 0.041377544 -0.2312923 -0.15141346 -0.118801 0.0964029 0.22768337 0.066907555 0.060404114 0.21203335 -0.20093983 -0.103198096 -0.41257507 -0.3621052 -0.13470668 -0.119017065 -0.024265531 -0.26214105 0.048426393 0.05334999 -0.0040207747 0.28754604 
_:B658ed8eaX2Dc6c9X2D4c25X2D93beX2Df493a25eb887 0.13188766 0.29030365 -0.040087372 -0.15095149 0.047852933 -0.1999476 -0.14557269 -0.16407406 0.05343284 0.19024305 0.049391318 0.0048492397 0.060323115 -0.18378718 -0.04020623 -0.340346 -0.3397655 -0.11137689 -0.04878824 0.009420599 -0.2746984 0.04242092 0.06175041 -0.006334961 0.18985763 
_:Bdc967ec9X2Ddd2aX2D45c0X2D8c77X2D3691fe515596 0.09758938 0.12341848 0.009410689 -0.07255032 0.028616697 -0.13422252 -0.073715694 -0.054310814 0.036574036 0.10656031 0.015850639 0.022606023 0.07486483 -0.11811623 -0.027561862 -0.16751376 -0.14975119 -0.052225724 -0.05596141 -0.01088537 -0.10214214 0.04942513 0.010188552 -0.021815786 0.09972667 
http://www.co-ode.org/ontologies/pizza/pizza.owl#VegetarianTopping 0.22692974 0.4523826 0.1110263 -0.074996024 0.039973017 -0.3426927 -0.2845908 -0.25181264 0.1329825 0.24658987 -0.029355053 -0.012508001 -0.04105476 -0.1564427 -0.09393438 -0.4403197 -0.55578834 -0.050214674 -0.31047073 0.10878652 -0.3026018 0.07685755 0.03662184 -0.08048693 0.25293553 
_:B7183ea61X2D233fX2D46f1X2Da16aX2D42511ecd3fef 0.257052 0.46403745 0.116745286 -0.0016844096 0.016838934 -0.39208895 -0.29890105 -0.3120411 0.12350282 0.27050093 -0.061898004 -0.045412805 -0.07465758 -0.20894426 -0.116931744 -0.49097714 -0.64663696 -0.036627214 -0.37573576 0.09330678 -0.30203104 0.08870302 0.13076212 -0.11708367 0.26768303 
_:Bc74e525cX2D4954X2D4602X2D9d40X2D5648775b9c28 0.22866254 0.41516054 0.072017744 -0.028338475 -0.058285233 -0.3862103 -0.26332906 -0.22925371 0.124807134 0.24833362 -0.069843054 -0.08479719 -0.0023661964 -0.20665015 -0.095543444 -0.47729847 -0.6123853 -0.011594779 -0.2606063 0.10034295 -0.30454436 0.046267025 0.1857062 -0.08810938 0.3081228 
